abuse	-0.035699 -0.000158 -0.002646 -0.008846 -0.043913 -0.024958 0.017613 -0.054970 0.022430 0.062868 0.006200 -0.054654 -0.044545 0.152906 0.005292 -0.005884 0.027327 0.004482 -0.015796 -0.038384 0.066343 -0.057182 0.133951 0.000299 -0.030960 -0.089722 0.039174 0.052127 0.030644 -0.013111 -0.029697 -0.066028 -0.087826 -0.009438 -0.040280 -0.052127 0.006871 0.024958 -0.020219 0.142796 -0.001145 -0.000775 -0.044229 -0.034909 -0.048652 -0.053707 0.036015 0.107413 -0.077401 -0.028907 0.061289 -0.011373 -0.054654 0.096672 -0.008727 -0.024642 -0.072662 -0.066028 -0.072030 -0.001392 -0.106781 0.087194 0.089722 -0.016902 0.034909 0.002340 -0.005608 0.037437 0.019113 0.090354 -0.013032 0.020535 -0.048336 0.085299 0.098567 -0.034751 0.053391 0.039174 0.099831 0.036963 0.027011 -0.023694 0.025748 0.019350 0.016744 -0.063500 0.019271 0.078033 0.020535 -0.031750 0.044229 0.002478 -0.051179 0.050547 0.021325 0.055918 0.106150 -0.053391 0.017534 -0.037121 0.017060 0.037753 0.058761 0.002685 0.037911 -0.046756 0.002903 0.062237 -0.022114 -0.023536 0.005568 0.087194 -0.034593 -0.038069 -0.089090 0.033014 -0.001160 -0.002340 0.033330 0.087826 -0.108045 0.058130 0.066975 -0.006318 -0.040122 -0.124473 -0.075505 0.021167 0.079296 -0.061921 -0.104254 -0.085931 -0.080244 -0.027327 0.011215 -0.074873 0.049284 -0.056234 -0.015164 0.006042 0.041702 0.036805 -0.152274 0.009004 -0.003673 -0.015322 -0.047388 0.016507 0.000082 -0.059393 0.195871 -0.036647 0.079612 -0.015638 0.001051 0.052759 -0.056234 -0.063184 0.080560 -0.109941 0.065080 0.087194 -0.069819 -0.072346 -0.062237 0.085931 -0.032540 -0.063816 0.032382 0.015164 -0.044545 0.043597 -0.008885 -0.001698 -0.001461 0.003080 0.032382 -0.029065 0.037121 0.087826 -0.010267 0.016823 -0.111204 -0.022746 0.003357 -0.003910 -0.063184 0.013427 -0.054023 0.071082 0.084035 -0.098567 0.032066 -0.127000 -0.036805 0.048020 0.017060 -0.087826 -0.042018 -0.078033 0.020377 0.000765 0.042018 -0.049284 0.008490 0.099831 0.061605 0.030328 0.039964 0.060341 -0.018402 0.024800 0.009478 -0.029539 0.008846 0.008293 0.027327 0.029539 -0.147851 -0.107413 -0.094145 -0.008885 0.041702 0.035541 0.021167 -0.039490 0.092881 -0.048968 0.054654 0.028117 -0.126369 -0.019192 -0.033962 -0.013901 -0.061921 -0.104254 0.030013 -0.027011 0.082140 -0.089722 0.055918 -0.120050 0.077085 -0.057814 -0.045493 0.045809 -0.067923 -0.018244 0.058130 -0.061289 0.048336 -0.035699 0.045493 -0.039806 -0.026853 0.079928 0.066659 -0.026064 -0.011847 -0.058445 -0.042965 -0.021167 0.004581 0.057182 -0.064448 -0.021641 -0.019192 0.108045 -0.052759 -0.026064 0.023694 0.057814 0.023062 0.061605 -0.018718 0.030486 0.032066 -0.014374 -0.108677 0.027643 0.037437 -0.026537 0.066659 0.145324 -0.036173 -0.033014 -0.034435 -0.042333 0.033804 0.051179 0.071082 0.038542 0.011452 0.076769 -0.104886 0.059077 -0.053391 -0.078980 -0.036331 0.028591 
accommodation	-0.037798 -0.033716 -0.009676 0.034623 -0.028122 -0.030541 -0.005556 -0.061384 0.010659 -0.087692 0.019655 -0.000647 0.012776 0.013003 0.034018 0.023284 0.050196 -0.058663 0.060175 -0.087087 0.068944 -0.058360 0.061082 0.026459 -0.026307 -0.001210 -0.061989 0.024040 0.024040 -0.070456 0.004422 -0.065618 -0.037798 0.107044 0.018445 -0.074991 -0.031750 -0.014363 -0.075899 -0.100997 -0.082853 -0.008580 0.017312 0.107649 -0.002551 -0.079830 0.052917 -0.062896 -0.113092 -0.045358 0.093135 -0.020260 0.012095 0.001701 -0.041427 -0.145145 -0.051103 0.030843 -0.042032 -0.026459 -0.042939 0.056546 -0.024796 -0.077108 -0.045660 -0.095554 -0.081039 -0.052010 0.064106 0.069851 -0.051708 -0.001313 0.086482 0.055034 0.008505 -0.027517 -0.013834 0.036286 -0.009487 0.037345 -0.010961 0.017538 -0.162078 0.069246 -0.007182 -0.028575 -0.014288 0.003704 0.046265 0.031750 0.107649 -0.058965 -0.055034 -0.063803 0.059267 -0.034472 0.057151 -0.050801 0.067129 -0.142121 0.008089 0.049591 0.114302 0.044451 0.006690 0.000652 0.105835 -0.050801 -0.021621 -0.017690 -0.120349 -0.025249 0.081039 0.028424 -0.030692 0.010735 0.075899 -0.095554 0.009752 0.084668 -0.091925 0.035984 0.013154 0.018370 -0.022074 0.019353 -0.038403 -0.101601 -0.008202 -0.013910 0.031448 0.020562 -0.007257 0.033414 -0.111882 -0.003213 -0.016631 0.019126 -0.029785 0.140911 0.018899 0.014590 0.058663 0.043241 0.015573 -0.074689 -0.093739 0.064408 -0.074387 0.017160 0.008996 0.011188 0.057453 -0.106440 0.081039 -0.079830 0.027063 -0.013834 -0.090111 -0.122164 0.004120 0.050498 0.022225 -0.013078 -0.036286 0.017538 -0.008920 0.025552 -0.082853 -0.000383 -0.107649 0.042334 0.088296 -0.055034 0.011491 -0.034170 0.107044 -0.054732 -0.029936 0.105835 -0.053220 -0.013985 -0.040822 -0.071060 0.035228 -0.095554 0.003477 -0.016178 0.062896 -0.016480 -0.037949 -0.009979 0.030843 0.078620 -0.079830 0.049591 -0.015270 -0.008391 -0.019806 -0.068339 0.048382 0.055034 -0.033716 -0.128816 -0.054429 -0.050801 -0.026459 -0.033262 0.133049 0.058058 0.039008 -0.108254 -0.002892 0.021016 -0.023737 -0.019655 0.067734 0.095554 -0.080434 -0.004649 0.099182 -0.028575 0.061384 0.048986 -0.071363 0.096763 0.051708 -0.019050 -0.094344 0.010054 0.010130 -0.085273 0.023888 -0.026156 -0.009412 -0.014817 0.069549 -0.005443 -0.017690 0.054429 0.031297 0.042334 0.071363 0.003440 0.006804 0.048382 -0.053522 -0.011793 -0.131840 -0.011491 0.082853 0.075294 -0.005216 0.112487 -0.026459 0.055639 0.004177 0.045963 0.002154 0.005670 0.086482 0.020865 -0.067129 0.066827 0.028122 -0.053220 0.060175 -0.064408 -0.020562 0.015875 -0.012473 0.097368 0.072875 0.006804 0.041729 -0.024191 0.004989 -0.118535 0.050196 -0.046265 -0.008278 -0.052917 0.054429 -0.046567 0.088901 0.106440 -0.016858 0.053522 -0.017992 0.108859 -0.104020 0.027063 0.000446 0.052615 -0.024191 0.013381 -0.011642 0.011642 0.003118 0.011717 
activity	0.024513 -0.028540 0.046574 0.101553 -0.022587 -0.075289 -0.079842 -0.014620 0.032217 -0.019435 0.031341 -0.042897 -0.069687 0.000936 0.005909 -0.001308 -0.086145 -0.025563 0.090347 -0.143575 -0.012519 -0.101553 -0.177893 0.102954 -0.058831 -0.008054 -0.056029 0.088246 -0.056029 0.037645 0.050426 -0.193301 0.054278 -0.022587 0.012344 0.040271 -0.030466 -0.026089 0.067585 0.033092 -0.004202 0.036419 0.015321 0.014007 -0.020048 0.002670 -0.013482 -0.039921 -0.064784 -0.007135 0.082643 -0.046574 0.021624 0.044648 0.127467 -0.001477 0.014708 -0.074589 -0.025914 -0.018560 -0.093849 -0.026789 -0.097351 -0.002112 -0.125366 0.030291 -0.052177 -0.011556 -0.044298 0.037470 0.038520 -0.073889 0.092448 0.108557 0.047625 -0.065134 0.071437 -0.082293 0.070037 0.043248 -0.014270 -0.011206 0.073188 -0.013920 0.026439 -0.019435 -0.042722 0.142175 -0.053228 0.013570 -0.002648 -0.099452 -0.027139 -0.072488 0.057430 0.038695 0.102254 0.040796 0.014007 0.003349 0.054979 -0.078441 0.010593 -0.004180 0.061282 -0.067936 -0.048325 0.043948 -0.042022 -0.040796 -0.039571 -0.021974 0.040271 -0.045524 -0.035719 -0.029591 0.054979 0.059181 0.029591 -0.031867 -0.059531 0.015496 0.043248 0.054979 -0.032217 0.049376 -0.036769 0.036594 -0.015145 0.116961 -0.061282 -0.037295 0.115561 -0.059531 0.000378 -0.050426 0.132369 0.033793 -0.051827 -0.040271 0.026614 -0.025563 -0.027489 0.070037 -0.034493 -0.067585 0.054979 0.049376 -0.072838 -0.093149 0.003305 -0.051127 -0.045174 0.091048 -0.020311 0.042022 0.007354 -0.057430 0.056029 -0.045174 0.052878 0.071788 -0.057780 0.025738 -0.056029 -0.030991 0.033267 -0.066185 0.070037 0.083694 -0.139373 -0.003940 -0.006785 0.024688 0.013745 0.069687 0.009543 0.029591 0.095250 0.003699 -0.034843 -0.081943 -0.013745 -0.042722 0.030291 -0.025914 -0.018297 0.041497 0.067235 0.055679 -0.066535 -0.063383 -0.013132 0.049726 -0.042722 -0.003480 -0.029591 0.015321 -0.003283 -0.086145 0.026614 0.063383 -0.125366 -0.126066 0.045874 -0.026439 0.015408 0.023112 0.023637 0.008054 0.002747 -0.030291 -0.154781 0.095950 -0.050076 0.010637 0.001521 0.039221 -0.016984 0.011469 0.073188 -0.009149 -0.027840 -0.002955 -0.069687 0.052878 0.067585 0.014533 0.049376 0.050076 0.029766 0.010330 -0.012694 -0.059881 0.000514 -0.074239 0.036419 0.030991 0.117662 -0.061282 0.036594 0.003283 0.037645 0.011469 0.015496 -0.055329 0.029941 -0.000152 0.059181 -0.022762 0.042722 -0.020486 -0.031166 0.025038 0.005231 0.076690 0.082293 -0.100853 0.023287 -0.057430 -0.003896 -0.105755 0.001981 0.002287 -0.109958 0.069687 -0.067585 0.082643 -0.039746 0.008273 0.001362 0.061632 0.074589 -0.029065 -0.078091 -0.175792 -0.052177 0.007266 -0.008142 0.014883 -0.012344 0.026614 0.035018 0.030116 0.065134 -0.007923 0.013044 -0.029941 0.037645 0.029415 -0.097351 -0.002090 0.129568 -0.046224 0.080192 0.029591 0.043073 0.002375 0.039221 -0.012169 
admission	-0.028358 -0.006290 -0.050026 -0.011198 0.022831 0.083764 0.034029 0.015778 0.043627 0.013379 0.036792 -0.036210 0.017742 -0.032429 -0.119247 0.059624 0.034320 -0.024577 0.101215 -0.026322 -0.032284 0.016942 0.072130 0.092489 -0.095979 -0.014760 -0.094816 0.058460 -0.076784 0.066895 -0.098888 -0.086672 -0.003563 0.029230 -0.005926 0.019923 0.068349 0.005599 -0.036210 0.014179 -0.027049 -0.029812 0.074457 -0.132626 0.084927 -0.043045 -0.061659 -0.012870 -0.062532 -0.045954 0.017524 0.028067 -0.062241 -0.044500 0.059042 0.049153 -0.058751 -0.035774 -0.036938 0.059624 -0.026031 0.043918 0.087254 -0.119247 0.001518 -0.125646 -0.047699 0.018905 0.065150 -0.018614 0.034756 0.032139 0.109940 -0.045372 0.098306 -0.033447 0.041591 -0.028503 -0.017305 0.041009 -0.040719 -0.079110 -0.023704 0.087836 -0.022686 -0.051189 0.015997 -0.050316 -0.050607 -0.088999 0.045954 0.038683 -0.007162 -0.039846 -0.002045 0.070967 0.072130 0.014688 0.035483 0.000927 0.015851 0.019487 -0.025449 -0.065731 0.011052 -0.033157 0.079692 -0.090162 -0.026322 -0.091326 -0.011925 0.004490 -0.075038 0.061078 0.013306 0.016433 0.051771 -0.014397 0.140770 0.076202 -0.070967 0.093653 0.017451 -0.074166 -0.043336 0.012579 0.076202 0.010180 0.172181 0.007053 0.043627 -0.056133 0.009125 -0.001000 -0.102378 -0.050026 0.040428 -0.033157 -0.024577 0.050607 -0.093653 -0.035920 -0.069222 0.001818 -0.054388 0.021523 0.118084 0.068640 -0.074166 0.037519 -0.010834 0.021377 -0.018760 -0.044500 0.026612 -0.137280 0.018396 -0.006762 -0.092489 0.055261 0.120992 -0.010325 0.162874 0.018614 -0.080855 0.013452 0.081437 -0.033157 -0.054097 -0.084927 0.043336 -0.051771 0.082019 -0.093071 -0.102378 -0.120992 -0.010543 -0.016942 -0.015924 -0.020068 -0.027194 -0.021232 0.027776 -0.015560 0.061078 -0.002927 0.038683 -0.009380 0.040137 0.016433 -0.063405 0.022395 -0.014324 0.087836 -0.061369 -0.025449 0.016796 -0.017378 -0.139606 0.039555 0.026758 0.004417 0.015633 -0.098888 -0.002363 -0.063114 0.044209 -0.000092 0.021232 0.107032 0.041882 0.060205 0.072421 0.027340 -0.083182 0.115175 0.075620 0.079692 0.027340 -0.076202 -0.063695 0.016215 0.061950 0.012652 0.045372 -0.082019 0.019923 0.081437 0.028358 0.026031 -0.070094 0.027049 0.025013 0.023122 0.061659 0.020359 0.038392 0.062241 0.002836 0.029085 0.032284 0.014251 -0.075038 -0.045372 -0.096561 0.033302 -0.094234 -0.000260 -0.055261 0.041882 0.100633 -0.014324 0.020505 0.061659 -0.011925 0.068640 0.070385 0.035920 -0.125064 -0.006944 0.025304 -0.038973 0.033884 0.068640 -0.006290 -0.012434 0.065441 0.004835 -0.035483 -0.119829 -0.036647 0.033593 0.091326 0.068640 0.076784 -0.051480 0.048281 -0.027630 0.020941 0.045954 0.077947 -0.003690 -0.060496 0.001581 0.005781 -0.037810 0.083764 0.085509 0.003381 -0.027776 -0.046535 0.017742 -0.010907 0.030975 0.053516 0.000132 0.027194 -0.001372 -0.033884 0.082019 
airport	0.020710 -0.010151 0.026744 0.018264 0.006767 -0.110888 -0.101756 -0.006319 0.048269 -0.037343 0.101756 -0.018590 0.049900 -0.087406 -0.047617 -0.008031 0.051857 0.052835 0.036365 -0.025276 -0.009540 -0.042398 0.055118 -0.008439 0.041420 -0.056096 -0.009499 0.021362 0.064902 -0.031799 0.012393 -0.118716 -0.106322 0.023482 -0.016715 -0.061641 -0.059684 0.065555 -0.023971 0.033103 -0.018345 0.016552 0.065555 0.024461 -0.087406 -0.135023 0.015818 0.009417 0.079905 0.061967 -0.030984 0.018916 -0.003261 -0.000785 -0.052835 -0.085449 -0.059032 0.065881 0.012149 0.002670 -0.054792 -0.048269 -0.029679 -0.038648 0.048595 0.026418 -0.079579 0.012556 0.029679 -0.024624 -0.059032 0.009377 0.021199 -0.011252 -0.168289 -0.035876 0.006890 0.044355 0.037996 -0.045334 -0.029516 0.034897 -0.003873 0.036202 -0.033756 -0.018509 0.029842 0.048595 0.036365 0.015981 0.007094 -0.007094 -0.103713 0.040442 0.029679 -0.048921 0.053813 -0.060989 0.021199 -0.070121 -0.003547 0.031962 0.060989 0.088711 0.140893 0.029353 0.055444 0.000301 0.050226 -0.075339 -0.071425 -0.008969 0.031636 -0.032288 -0.130457 0.020221 0.019976 0.007216 -0.001305 0.015003 -0.044681 -0.023156 -0.070773 -0.075991 -0.016470 -0.001299 -0.041746 -0.044681 0.129152 -0.000397 0.011170 -0.062293 0.010518 -0.010151 0.030657 -0.120673 -0.014106 -0.009784 0.026744 0.048921 -0.073382 -0.055118 0.006197 0.016307 0.045660 -0.014432 -0.083492 -0.039789 0.003384 -0.073056 0.036039 0.067511 0.077296 -0.023645 -0.053813 -0.053813 0.096538 -0.063924 0.042725 0.026907 -0.099147 0.033756 0.043703 0.025765 -0.106975 0.073708 0.005096 -0.106322 0.071099 -0.047943 0.038974 0.021362 0.053813 -0.008480 -0.027885 0.033267 -0.001590 -0.146112 -0.016144 0.004913 0.017122 0.018509 -0.026254 -0.056749 0.042072 -0.019813 0.012149 0.032614 0.001926 0.007094 0.030331 0.127195 0.011660 -0.002793 -0.054792 0.114150 -0.035386 -0.022341 -0.076970 -0.068490 -0.029679 0.066859 -0.002395 -0.079905 0.077622 0.060336 0.095234 0.082840 0.053161 -0.009295 0.046312 0.015573 0.007461 0.019813 -0.106975 0.077622 -0.005667 0.161114 -0.074360 0.118716 -0.020628 0.009621 -0.026418 0.035223 0.064576 0.021688 -0.137632 0.071099 -0.035223 0.036039 0.138284 0.050226 -0.195685 -0.007664 0.039626 -0.012312 0.098495 -0.026907 0.106975 -0.046312 -0.029190 0.029516 -0.035550 -0.052509 0.005178 -0.055770 0.011660 -0.088711 -0.030657 0.067838 0.007542 -0.008928 0.000510 0.052183 -0.026254 -0.063598 0.075339 0.117411 -0.056096 -0.026418 0.006278 0.057075 -0.027559 0.048269 0.080883 0.025765 -0.008113 -0.106322 -0.132414 0.045334 0.045986 -0.025276 -0.028864 -0.056096 0.020873 -0.054140 0.069468 0.016959 -0.028864 -0.074360 -0.011170 0.060010 0.015655 -0.025439 0.013698 0.036691 -0.119368 0.007909 -0.053161 0.080231 -0.004872 -0.013780 0.075013 0.016144 0.029027 0.028211 -0.159157 0.034897 0.022341 -0.048595 
alcohol	-0.017343 -0.095251 0.015348 -0.007536 -0.075430 0.043496 0.047626 -0.029732 0.012595 0.028906 0.031246 -0.079284 -0.040743 0.019133 -0.066621 -0.015623 -0.056435 0.067997 0.129388 -0.113971 0.030282 -0.055334 0.035788 -0.031796 0.034412 0.009911 0.020509 0.098555 -0.014591 -0.020234 0.011493 -0.068823 -0.038541 -0.060840 -0.020922 -0.042395 -0.085891 -0.145355 -0.029456 0.054233 0.048176 -0.087543 0.006332 -0.067722 -0.051480 -0.067171 -0.058637 0.002306 0.011149 -0.010255 -0.025052 0.009773 -0.035100 -0.021610 0.000563 -0.046524 -0.072677 0.098004 -0.086442 -0.056160 0.002306 0.063593 -0.002581 0.047075 0.038541 0.041844 -0.021886 0.023262 -0.039642 -0.009291 -0.015072 0.016518 0.056160 0.011287 0.046524 -0.068548 0.019546 0.072127 0.091397 -0.028630 -0.030970 -0.198211 -0.113971 -0.034549 -0.080936 -0.032622 -0.065795 0.106814 -0.015279 0.008396 -0.061666 -0.096352 0.063593 -0.001153 -0.000258 -0.043772 0.061390 0.008878 0.005884 0.006607 0.098004 0.137096 0.072127 -0.037715 0.120578 -0.074329 0.007433 -0.031796 -0.018169 -0.025052 0.066346 -0.010186 -0.076531 -0.086442 -0.002856 -0.039367 0.079835 -0.022849 0.039367 -0.048452 -0.091948 0.144253 0.000187 0.011287 -0.018720 -0.045974 0.131590 -0.067997 0.066346 -0.032622 -0.061115 -0.077633 -0.093600 0.028906 0.029732 0.086442 0.084240 -0.026841 0.034825 0.017137 -0.044047 -0.027392 -0.123331 -0.085341 -0.016380 -0.012319 0.043772 0.076531 -0.084790 -0.039917 0.064143 0.048727 0.036063 -0.041569 0.002512 0.007433 0.061941 -0.038816 -0.010530 -0.072677 0.039917 0.028355 0.133242 0.075981 0.071026 0.028355 0.015072 0.076531 0.000585 -0.094701 -0.002022 -0.041294 0.045423 -0.095251 -0.056710 -0.000671 0.026703 -0.034412 -0.067722 0.036339 0.044322 0.010530 -0.055884 0.077633 0.091397 0.048176 -0.060840 0.032485 0.053132 -0.070475 0.035513 0.006986 -0.082037 -0.040743 0.074880 0.008328 0.038541 -0.012526 -0.030833 -0.055334 0.120578 0.067171 -0.022574 -0.088644 0.053132 -0.066070 0.030420 -0.038266 0.044873 -0.022574 -0.016449 -0.039642 -0.025602 -0.016999 -0.017137 -0.034549 0.022161 0.075430 -0.014591 -0.008500 -0.100207 -0.100757 0.107915 -0.115623 0.110668 0.004353 0.026428 0.027942 0.052856 0.124983 0.013283 0.029869 -0.048452 -0.023125 -0.041844 -0.086442 0.050654 0.026703 0.019270 0.105162 0.115623 -0.075430 -0.000822 -0.068273 -0.028218 -0.037990 -0.064969 0.059739 0.038541 -0.057261 -0.011012 -0.024363 0.037715 0.008534 -0.006951 -0.040468 0.036339 0.033035 0.002357 0.009429 -0.007261 -0.024914 0.032072 0.028906 -0.007983 -0.054233 -0.024363 0.025189 -0.039367 -0.045699 -0.064419 0.013765 -0.005196 0.099105 -0.053957 0.048452 0.014315 -0.044322 -0.064143 -0.022849 -0.013489 0.001222 0.111218 -0.052306 -0.099656 0.019821 0.060564 0.056160 0.058087 0.074880 -0.034962 -0.037165 0.052306 0.044047 -0.040193 -0.012801 0.082588 -0.024914 0.037990 -0.036063 
aluminum	-0.068687 0.040094 -0.075715 -0.005790 -0.000434 -0.001218 0.127789 -0.056866 0.133540 0.132262 -0.007827 0.001153 -0.041532 -0.063256 0.003674 -0.023961 -0.040893 0.012939 -0.005990 0.020287 -0.021724 0.027475 0.016692 0.032906 0.021884 0.005870 -0.029072 0.141846 -0.003295 -0.050157 -0.016533 0.009265 0.025079 0.048560 0.068048 0.026516 0.006469 0.008466 0.005431 0.092647 0.001897 -0.017970 0.057186 0.019009 -0.020926 -0.032746 -0.038656 0.010702 0.037538 -0.071882 -0.022683 0.015734 -0.112455 0.033385 -0.014217 -0.059742 -0.012060 -0.005431 -0.019089 0.004832 -0.014536 -0.015734 -0.081146 -0.034503 -0.027475 -0.022683 -0.107982 -0.050157 -0.026676 0.111816 0.073479 -0.056866 0.070284 -0.061658 -0.122039 0.020207 -0.035462 -0.035621 0.016453 -0.136735 0.039615 -0.091369 -0.108621 -0.012859 0.065492 0.016453 -0.031788 0.009784 -0.064534 -0.036101 -0.087536 0.031149 0.066131 0.107982 -0.102871 -0.036739 0.015095 -0.031468 0.049838 -0.039136 -0.002436 -0.049199 -0.048241 -0.083702 -0.037219 0.056866 0.061978 0.011341 -0.005471 -0.008746 -0.070923 -0.108621 -0.061978 0.034982 -0.088175 0.020766 -0.063575 0.056866 -0.082424 -0.014696 0.045685 -0.001418 -0.069006 -0.004772 0.043448 0.032586 -0.011661 0.010463 0.014536 0.119483 -0.009784 0.000311 -0.031788 -0.060381 -0.014217 0.023162 -0.064534 -0.049838 -0.023961 0.035781 0.137374 0.032746 -0.036420 -0.021564 0.078591 0.050157 0.078910 0.061019 -0.043768 -0.039934 0.027155 -0.181461 -0.070604 0.071562 -0.049199 0.069326 -0.041851 -0.011501 0.022842 0.035781 -0.044407 0.013338 -0.038337 0.056227 -0.023641 0.034024 -0.038497 0.001108 -0.017491 -0.069006 -0.082424 -0.042809 -0.048241 0.036101 0.003354 -0.012060 0.042171 -0.109260 -0.116288 -0.072521 0.012619 -0.038816 -0.084980 0.040893 0.053352 -0.058144 0.043129 0.061019 0.129067 -0.009864 -0.056547 0.012380 -0.101593 0.038976 -0.128428 0.016533 0.087536 -0.125873 0.036580 -0.008306 0.071243 -0.057186 -0.106704 -0.013258 0.029232 -0.035462 0.116288 -0.125873 -0.062297 0.012939 -0.026357 0.030031 0.006949 0.015175 0.061658 -0.026357 -0.024280 0.046324 -0.073159 0.057505 -0.040094 -0.056227 -0.132262 0.091369 0.061019 -0.047282 -0.021564 0.046004 0.052713 0.034663 -0.007108 0.028753 -0.015974 -0.034823 -0.067728 -0.078591 -0.067409 -0.077632 0.047282 -0.068048 0.036580 -0.023162 0.024919 0.023801 0.025558 -0.057825 -0.004133 -0.019887 -0.018849 -0.017491 0.143124 -0.004173 0.042490 -0.003554 -0.029392 0.011102 0.056227 -0.002955 -0.008945 0.055588 0.048241 -0.018689 -0.052713 0.002236 0.094564 0.011741 0.022363 -0.111816 -0.044726 0.071562 0.053672 0.037059 0.053033 -0.021724 -0.032746 -0.127789 -0.007587 -0.038656 -0.041851 0.125873 -0.022203 -0.069326 -0.063895 0.052074 -0.038497 -0.125234 -0.032746 0.017411 -0.000223 0.014456 -0.058464 -0.103509 0.003135 -0.010303 -0.045685 -0.037858 0.012619 0.035142 0.020127 -0.100954 
American	0.003299 0.069830 0.078974 0.136335 -0.055698 -0.025251 0.043852 0.039487 0.039695 -0.028057 -0.111395 0.069830 0.059439 0.017042 -0.007274 0.071908 -0.056529 0.034084 0.020887 -0.020679 -0.097263 0.000594 -0.066920 -0.070246 -0.009976 0.136335 -0.072324 0.019848 0.035123 0.030551 0.193695 -0.038448 -0.058607 0.035123 0.078559 0.041150 0.043852 -0.026186 -0.040526 0.067336 0.055698 0.019640 0.010080 0.092275 0.048216 0.039072 -0.085209 0.062348 0.083547 -0.000922 -0.054035 0.090197 -0.006287 -0.056529 0.010132 0.120540 -0.005481 -0.014236 -0.032837 -0.060270 -0.036993 -0.005689 -0.076065 0.027018 -0.043020 0.019328 -0.025043 0.014236 -0.029096 -0.010963 -0.011067 0.033460 -0.090197 -0.009456 -0.021094 -0.015171 -0.057360 0.074818 0.105992 -0.022238 -0.032005 -0.103498 0.046553 0.058607 -0.058192 -0.052788 -0.040942 0.023484 -0.007014 0.067752 -0.108070 -0.006001 -0.025563 -0.037825 0.020263 0.057776 0.060686 -0.006650 0.001676 -0.062764 -0.027433 0.005533 0.006495 -0.029304 -0.053204 0.005274 0.011431 -0.142154 -0.098510 -0.002065 0.001663 0.030343 -0.038032 0.114721 -0.008937 -0.034292 0.010287 0.048424 0.087703 0.088534 -0.088950 -0.050294 -0.012885 -0.038864 0.034292 -0.032837 0.000487 0.002767 0.013509 -0.024524 -0.018081 0.058607 -0.142154 0.043228 -0.002611 -0.095185 -0.009456 -0.099757 -0.009144 -0.024835 -0.010287 -0.038656 -0.027641 0.008417 -0.018497 -0.001202 0.054451 0.060270 0.035123 0.030135 -0.019016 -0.048424 0.013821 0.011846 0.050294 0.005040 -0.123865 -0.090197 0.133010 -0.045930 -0.063595 0.009872 0.004312 -0.087703 0.037201 -0.095185 0.005429 -0.024939 0.231104 0.083131 -0.076065 0.059439 0.049463 -0.096432 0.079806 -0.070246 0.020575 0.001000 -0.011119 -0.064011 -0.118877 -0.131347 0.062348 0.013301 0.062764 -0.051333 -0.044059 -0.136335 0.026498 0.098926 0.091028 -0.051541 0.015379 0.036162 -0.089366 0.045099 0.004312 -0.021614 -0.022238 -0.038448 0.068999 0.043852 0.007586 0.064011 -0.063180 0.042605 -0.063180 -0.002117 -0.032421 0.002351 0.008937 0.015899 -0.030758 0.056945 -0.024628 0.064426 0.057360 0.073155 -0.059854 -0.061101 -0.011119 0.007378 0.010859 -0.071077 -0.004858 -0.003533 0.015067 -0.018081 -0.012418 -0.035331 -0.037201 -0.059023 -0.018185 0.057776 0.000753 0.003169 -0.040526 0.041358 0.015587 -0.085625 -0.015379 -0.080637 -0.040942 0.013145 -0.078974 0.022030 0.018704 0.003429 -0.046969 -0.020367 0.032837 -0.113889 -0.032213 -0.072740 0.057360 0.042812 0.022134 -0.027641 -0.002845 -0.041981 -0.014652 0.025667 -0.007222 -0.035538 -0.017561 -0.013613 -0.065258 -0.048008 0.018601 0.053204 -0.035331 0.025251 -0.093522 -0.041150 0.008521 0.076480 -0.021718 0.056945 0.030551 -0.005585 0.118877 -0.077727 -0.074402 0.026498 -0.048632 0.040734 -0.060270 0.128853 0.031382 -0.057360 0.003611 -0.071077 -0.112227 0.028888 -0.023069 -0.011742 0.038032 0.092691 0.087703 -0.025355 
animal	0.002705 0.068340 -0.056624 0.039377 -0.038563 0.009966 0.058902 -0.012773 -0.050116 -0.027499 0.027011 -0.160110 -0.042306 -0.070292 -0.103486 -0.045560 -0.080055 0.070618 -0.035309 -0.013098 0.043607 -0.056950 0.050441 -0.011715 -0.057601 0.006061 -0.067038 0.075174 0.112598 -0.060530 -0.061506 -0.035146 -0.076801 -0.054672 -0.101533 0.052068 -0.008624 0.021641 0.024244 0.108693 0.016515 0.034170 -0.076150 0.101533 -0.126266 -0.085913 0.085262 0.120408 0.038400 0.041980 -0.005105 -0.045234 0.036611 0.015051 0.000488 0.008787 0.071594 -0.043933 0.109344 0.105439 0.042956 0.021966 0.012122 -0.054672 -0.017817 -0.146442 0.062482 0.077126 -0.073547 -0.022292 0.029451 0.006142 -0.041655 -0.024407 -0.003803 -0.025221 0.017004 -0.051092 0.074523 -0.083960 0.012122 -0.005614 0.042631 -0.098930 -0.017410 0.001963 -0.081357 0.075174 -0.074198 -0.038238 0.009926 0.060204 -0.013017 -0.032543 -0.018224 -0.066387 0.025546 -0.003925 0.016760 -0.085262 0.016678 0.011065 0.017248 0.030753 0.093072 -0.041004 -0.005370 -0.056950 0.016027 0.000402 -0.096977 -0.002014 0.043607 0.054672 -0.046862 -0.023756 -0.071594 -0.060855 0.026848 -0.030753 0.001922 -0.089167 -0.130171 0.008014 -0.021153 0.000422 0.057601 -0.044258 0.069316 -0.024082 -0.075499 -0.045234 -0.115201 0.081032 -0.033356 -0.030102 0.034170 0.002054 0.022129 -0.008380 0.029126 0.000681 -0.056624 0.069316 0.034333 0.034821 0.010292 0.046536 -0.054021 -0.049465 0.115852 0.020258 -0.142537 0.001119 0.023756 -0.029126 0.006875 -0.076476 0.056950 0.020014 -0.044258 -0.008746 0.034983 0.049465 -0.007851 -0.026197 -0.078103 -0.023594 -0.004129 -0.021804 0.028963 -0.036611 -0.000526 0.066387 -0.031241 -0.033844 -0.021804 0.013505 -0.092421 -0.024082 -0.115852 -0.009763 0.014644 0.036122 0.029451 -0.014400 0.001215 0.065736 0.008258 0.092421 -0.052719 -0.031729 -0.037750 -0.013668 0.013587 -0.003071 0.020583 -0.085262 -0.045885 0.031241 0.051743 -0.096977 -0.053370 0.000110 -0.061180 -0.009478 0.012610 0.015458 0.086564 -0.081357 -0.177033 -0.006997 0.011797 -0.066387 -0.023105 0.024895 0.107391 -0.052719 0.055323 -0.011878 0.064435 -0.024407 -0.004210 -0.064109 0.066713 -0.041167 0.079730 0.009031 0.106740 0.035634 0.113249 0.049140 -0.054346 0.050767 -0.089818 -0.013505 0.124313 0.022129 0.021316 -0.030753 0.137331 -0.080381 0.012204 -0.065411 0.014888 0.007729 0.017899 -0.006631 -0.035960 -0.043933 -0.087215 0.063458 -0.100883 -0.069642 0.021804 0.014970 -0.030590 0.010820 -0.108042 0.012773 -0.102835 -0.012448 0.015132 0.003824 0.056950 -0.028475 -0.029288 -0.005776 -0.073872 -0.003417 0.010820 0.000151 -0.048489 0.032055 0.032705 -0.059228 -0.022780 0.002909 0.020339 0.053045 0.048814 -0.049790 0.068014 -0.015702 -0.073872 0.013668 -0.020990 -0.005939 0.149046 0.127568 -0.090469 0.039214 -0.073221 0.095025 -0.003763 0.080381 0.042306 0.123012 -0.036611 0.062482 
announcement	-0.027032 -0.055832 -0.071733 -0.043640 0.012721 -0.093995 -0.021113 -0.110250 0.138519 0.080214 -0.065019 -0.017757 -0.013870 -0.097528 -0.070673 0.054418 -0.017845 0.011175 0.054771 -0.008392 0.034806 0.101062 -0.005654 -0.012014 0.024559 0.087281 0.037280 -0.037280 -0.087634 0.035690 -0.004726 -0.033923 -0.000652 -0.052298 0.011219 0.004108 -0.001171 0.073146 0.009408 0.001910 0.045937 -0.017315 0.012014 0.015990 -0.064666 -0.050531 -0.081274 -0.000351 -0.091168 -0.000740 0.142759 0.009364 0.029506 0.108836 0.077033 0.017845 -0.058658 -0.037280 0.069613 0.015106 -0.083747 0.077740 -0.045054 0.024382 -0.072086 -0.091875 -0.102476 0.001634 -0.013339 0.043110 -0.076327 -0.043464 -0.078093 0.086221 0.068199 0.048057 0.043994 0.046291 -0.005919 0.054418 0.138519 -0.075973 -0.046644 0.017050 0.030389 -0.107423 -0.029153 -0.031449 0.033570 0.057952 0.086574 0.006714 0.019612 0.039223 -0.065726 -0.013693 -0.007111 -0.008657 0.014576 -0.042934 -0.020318 0.013074 0.040637 0.003865 -0.043110 0.012014 -0.005168 -0.056185 -0.021555 -0.045937 0.024912 0.019258 0.045937 -0.006272 -0.011308 -0.058305 -0.006979 0.019700 0.127211 -0.022085 0.033216 0.045584 -0.076680 0.016431 -0.015990 0.006272 0.043994 -0.052651 0.081980 0.093288 -0.045231 0.019700 0.031803 0.048764 -0.013339 -0.014046 0.022969 0.024912 -0.076327 0.040107 -0.025442 0.010336 -0.097528 -0.086574 0.004837 0.056892 0.073146 -0.024912 0.023322 0.002518 -0.022792 0.061839 -0.037457 -0.047351 0.017315 -0.045231 -0.043994 -0.015813 -0.102476 -0.033570 -0.006670 0.073146 0.069966 0.009718 -0.043640 -0.072793 0.051944 -0.005588 0.102476 -0.024205 0.063959 -0.076327 0.051944 -0.056538 0.042757 -0.051591 0.077740 0.039223 0.132865 -0.069259 -0.042580 -0.043817 0.045937 -0.082687 0.137105 0.050178 -0.045231 0.053711 0.066079 0.069613 -0.011396 -0.067139 -0.006802 -0.079507 -0.032863 -0.042580 -0.039753 0.092581 0.048764 0.013428 0.049118 0.002197 0.006714 0.023675 0.000734 0.068199 0.096822 0.093995 0.055478 0.042580 -0.050531 0.003269 0.016520 0.093995 -0.043994 0.082687 0.007067 -0.001988 -0.032863 0.049471 0.016343 0.001215 -0.012191 0.098235 0.046644 -0.067493 -0.023145 0.090108 0.067139 0.028976 0.083041 0.170321 0.023322 -0.041874 0.142759 -0.002264 0.011661 -0.006051 0.069613 -0.027209 -0.094702 -0.060425 -0.066079 -0.110250 -0.065372 0.018463 0.027916 0.117317 0.085514 0.007288 -0.071733 0.050531 -0.084454 -0.060072 0.025619 0.011838 0.050178 0.038693 -0.044347 -0.015813 0.078447 0.000126 -0.058305 0.041697 -0.040107 0.064666 0.080920 -0.085161 -0.057952 0.012456 0.031626 -0.015548 0.114490 -0.169615 0.059365 -0.052651 0.112370 -0.020848 0.037457 0.061839 -0.025266 0.008922 -0.041520 0.053358 0.061839 0.025266 0.014576 0.016873 -0.007200 -0.017492 -0.005786 -0.041874 -0.048764 -0.062545 0.065019 -0.030389 -0.010336 0.057952 -0.105302 -0.061132 
antecedent	0.086996 -0.074520 0.029504 0.104530 -0.046870 0.071485 0.005437 0.027144 0.090368 0.047882 -0.002845 0.006955 0.004657 0.060020 0.007798 0.095089 0.043161 0.021580 0.004742 -0.067439 -0.019726 -0.067102 -0.034225 0.010411 0.041138 -0.089019 0.019810 0.044847 -0.066427 -0.010959 -0.012813 -0.081601 -0.030179 0.087670 -0.036080 0.136226 0.125436 -0.009694 0.069462 0.020063 0.041981 0.032371 -0.003161 0.081938 0.039452 0.014331 -0.045521 -0.025458 -0.022086 -0.116669 -0.081264 -0.077217 -0.059346 -0.105204 0.045184 0.105204 -0.156458 -0.079578 -0.009526 -0.040800 -0.005943 0.077892 0.000595 -0.071822 -0.104530 -0.040969 -0.120715 0.107902 -0.095763 -0.132854 0.107228 -0.054625 0.049567 -0.011296 -0.025121 -0.049567 0.071148 -0.047882 0.027313 0.012560 0.000406 -0.013909 -0.012392 -0.111948 -0.013066 0.037260 0.014584 0.025795 0.036417 0.053951 0.023098 -0.065753 0.032876 0.016354 0.057997 0.009694 0.021075 0.066427 -0.037260 -0.011970 -0.050916 0.057323 -0.033045 -0.034731 -0.044847 -0.075869 0.015511 0.002719 -0.020400 -0.007334 -0.109925 0.026975 -0.003077 0.015680 0.093740 0.079241 -0.004552 0.092391 0.014584 0.095089 -0.051253 -0.047544 0.008725 -0.126785 0.007713 0.125436 -0.032708 0.031190 0.022086 0.052939 -0.070473 -0.049905 0.007334 0.054288 -0.024615 -0.060695 -0.038609 -0.016354 0.007376 0.040969 0.008767 0.043161 -0.041643 0.109251 0.040632 -0.030179 -0.079915 0.093740 -0.008093 -0.005374 0.015595 -0.012729 -0.067102 -0.003667 -0.023266 -0.101833 -0.065078 0.038777 0.109251 -0.134203 0.036586 -0.054963 -0.044847 -0.062718 0.018124 0.064067 0.003077 0.049905 -0.032202 0.114646 0.063055 0.067439 0.062044 -0.100484 0.012898 -0.055974 0.082275 -0.148365 0.111274 -0.012392 -0.027818 -0.027818 0.044847 -0.042486 0.025458 0.064067 -0.046870 -0.031865 -0.025290 0.106553 -0.047544 -0.022592 -0.004341 -0.021918 0.058335 0.034394 -0.046533 -0.006702 0.058672 -0.037260 0.031696 0.112623 -0.079241 0.040632 0.005395 -0.038609 -0.037766 0.014584 0.047207 -0.019051 0.029167 0.042992 0.037260 0.024952 -0.075531 -0.063055 0.034057 -0.046533 -0.009315 0.048556 -0.000922 0.066764 0.095763 0.043835 0.075531 0.077555 0.059009 0.032876 -0.027481 0.062381 0.010327 -0.016354 -0.122064 0.006870 0.027650 -0.015764 0.008177 -0.004046 -0.014415 -0.036080 0.007460 -0.151737 0.053277 0.031190 -0.027987 -0.012223 -0.004974 0.080927 0.012392 -0.015089 0.056986 0.015764 -0.025458 0.008135 -0.019979 -0.064067 -0.044847 0.091717 0.005437 0.013488 0.007629 -0.009357 -0.094414 -0.028324 -0.011717 0.056311 0.019473 -0.084636 -0.030853 0.014246 -0.013488 -0.047207 0.051591 0.105204 0.078903 -0.063730 -0.048556 0.006365 0.018124 0.132180 0.025964 -0.015848 -0.031696 -0.036248 -0.007545 -0.055637 0.016270 0.019557 -0.091042 -0.086322 -0.075531 0.029504 -0.076206 -0.041306 0.017450 0.010200 -0.014415 -0.031359 -0.072159 0.031865 
anxiety	0.085094 0.033572 -0.077117 0.035733 -0.093737 -0.016537 -0.041882 -0.028753 0.105038 -0.036065 -0.009432 -0.008642 0.081106 0.084430 0.001221 0.101050 -0.000016 0.135619 -0.001641 -0.123653 0.001963 -0.024598 0.008559 0.020276 -0.028753 0.074125 0.010304 -0.018697 -0.026758 -0.030747 -0.015124 -0.074125 0.031079 -0.033572 -0.072796 -0.039057 -0.024431 0.016620 0.035899 0.033074 -0.005173 -0.076784 0.001205 -0.111686 -0.020775 0.004820 0.008310 0.083100 -0.057838 0.075122 -0.120329 0.116340 -0.094402 0.046204 0.053516 -0.012548 -0.054514 -0.026260 0.034736 -0.018365 0.024099 0.007562 0.008892 0.064818 0.042049 -0.001361 -0.074790 -0.013462 -0.035899 -0.021190 0.057505 0.013961 0.035567 0.025429 -0.019030 -0.026260 0.101050 0.060164 0.028753 0.113016 0.016703 0.030415 -0.021772 -0.008933 0.020775 -0.073793 -0.085094 0.020609 -0.045539 -0.062491 0.010055 0.021107 -0.117670 -0.002971 -0.027922 0.017866 0.107698 -0.003282 0.023600 0.053516 0.130966 -0.037229 -0.009889 -0.044542 0.103709 -0.052187 -0.052187 -0.014958 0.029251 -0.071466 -0.040885 0.027091 0.092407 -0.020276 -0.070136 -0.075122 -0.065483 -0.050525 0.002576 -0.046204 -0.080108 0.079111 -0.039389 0.031578 -0.062491 -0.061162 0.038558 -0.050525 0.052519 0.070136 -0.084762 0.072463 -0.065150 0.066148 -0.023600 -0.062824 0.092407 0.061494 -0.049195 0.008268 -0.059832 -0.053516 -0.104374 0.033739 -0.007105 -0.071134 -0.076784 0.117005 -0.071466 -0.136949 0.030747 0.037894 0.072463 0.074458 -0.086424 -0.070136 -0.068142 -0.172848 -0.060164 -0.051190 0.014875 -0.001652 -0.041218 -0.016038 0.032741 0.012465 -0.047201 0.105703 0.052852 0.095066 0.030082 -0.022936 -0.067810 -0.028254 0.042880 -0.086424 0.043877 0.005401 -0.029750 0.040387 -0.061826 -0.009681 -0.032741 0.041716 -0.031079 -0.012049 -0.059832 0.055511 0.025429 -0.004030 -0.030581 -0.039389 -0.030082 0.027589 -0.103044 0.008518 -0.034902 0.101050 -0.035234 -0.049195 0.016371 0.025262 -0.107033 -0.069472 0.006316 -0.033739 0.008642 0.079444 0.044209 0.030248 -0.080108 -0.067145 0.008061 0.038891 -0.073460 -0.093072 -0.110357 0.040220 -0.022769 -0.053184 -0.044542 -0.053184 0.040553 -0.068142 -0.047201 -0.065483 -0.026758 -0.056508 0.023102 -0.047866 -0.042547 0.027755 0.101050 0.071798 -0.017534 -0.024431 0.011551 -0.010221 0.004529 -0.061162 0.007521 -0.048530 0.032077 0.007396 -0.029251 0.006939 0.005983 -0.035234 0.006232 -0.001974 0.024265 0.012797 0.086424 0.071798 -0.085094 -0.072131 0.053849 -0.005942 0.080773 0.053849 0.008144 0.056840 -0.000038 0.068474 -0.145591 0.107698 0.094402 -0.093737 0.012880 -0.056176 -0.063821 0.091078 0.097061 0.024764 -0.023102 -0.043212 -0.014626 -0.020359 0.019196 -0.035401 0.080773 -0.059167 -0.099055 0.073128 0.036896 -0.035401 0.051854 0.010637 0.041218 0.062824 -0.044542 -0.074790 -0.031246 -0.071466 0.006606 0.059832 -0.051854 0.076120 0.057173 -0.009847 
approach	0.040124 0.045568 0.012198 0.100410 -0.054439 0.019155 0.018449 -0.111298 0.006452 -0.009426 -0.000331 -0.115331 0.075408 -0.087103 -0.022985 0.058472 -0.113718 0.050810 0.024296 -0.081861 0.054843 0.055649 0.005797 0.088313 0.040930 -0.024397 -0.034478 0.007964 0.039721 0.034881 0.012350 0.026413 -0.027421 -0.020264 0.075408 0.065730 0.042947 -0.022280 0.137913 -0.034478 0.161302 -0.030042 -0.125815 0.026212 -0.070569 -0.060085 -0.132267 -0.000791 0.003579 0.049802 0.015223 0.091135 -0.045568 -0.104040 0.102023 0.007611 -0.058069 0.014618 -0.043148 -0.083070 -0.015122 0.000605 -0.072182 -0.033873 -0.026212 0.026615 -0.012350 0.077022 0.012249 0.048189 -0.064924 -0.014618 0.151623 0.036898 -0.000888 -0.047786 0.060488 0.045568 0.023691 0.066134 0.040527 -0.024699 0.089522 -0.051617 0.069763 -0.070973 0.030647 0.014416 0.049600 -0.018953 0.018247 -0.012098 -0.071779 0.064924 0.021171 -0.001878 -0.124202 0.004637 -0.074199 -0.035688 0.053633 -0.034680 -0.061295 0.083474 0.020062 -0.040325 0.038107 -0.052020 0.024498 -0.031857 0.070973 -0.002054 -0.007410 0.047584 0.007662 0.054036 0.045164 -0.044560 0.016533 0.035890 -0.095974 -0.008872 0.017945 0.067747 0.023994 -0.000332 0.035285 0.035688 -0.054439 -0.040729 0.002054 -0.117750 -0.018953 -0.034277 0.037503 0.009476 -0.006956 -0.036494 0.048592 0.086700 0.088313 0.033067 -0.008065 -0.010132 0.021372 -0.018348 -0.051617 -0.094765 0.015122 0.045568 -0.040729 -0.068553 -0.043148 -0.013005 -0.045769 -0.133074 -0.005948 0.006049 0.015525 0.018852 -0.002848 0.082264 0.023187 -0.070973 -0.060488 0.013711 0.088313 -0.085893 -0.031857 -0.049197 0.065327 -0.002747 -0.054843 0.007309 0.062101 0.041737 0.087506 -0.021574 -0.025808 0.076618 -0.140332 0.005696 0.041132 0.059682 -0.073392 -0.057262 0.008872 0.045568 -0.049399 -0.011543 -0.111298 -0.049802 0.021977 -0.001663 -0.094765 -0.090329 -0.087909 0.101217 0.032865 0.062504 0.007611 0.090329 0.009678 0.012854 -0.016029 -0.001752 0.054036 -0.075408 0.041938 -0.059278 -0.095168 0.001815 -0.011644 0.085087 -0.052423 -0.029841 0.037906 0.061698 -0.066134 0.005268 -0.044560 0.007410 0.029034 0.052423 -0.029438 0.014316 0.096378 -0.093555 0.043350 0.140332 -0.006553 0.009981 -0.023893 -0.082264 -0.011342 0.022683 -0.082667 -0.000545 0.044560 0.007107 -0.033470 0.089926 0.048189 -0.047584 0.023389 0.050003 0.010837 0.042140 -0.006553 0.013207 -0.002646 -0.003125 -0.104040 -0.066537 -0.036091 -0.002911 -0.056859 0.045568 -0.080651 -0.007309 0.054843 0.015021 -0.052020 -0.021372 0.013509 0.053230 0.000315 -0.046173 -0.206466 0.026212 0.040527 0.059278 0.061698 0.079441 -0.043551 0.027018 -0.065327 0.081457 0.041938 0.001462 -0.012098 0.006452 0.004537 -0.012350 0.070166 0.042543 -0.047382 -0.018046 -0.061698 0.035890 -0.182271 -0.002848 0.059278 0.031454 -0.043753 0.020163 0.138719 -0.004461 -0.059682 0.065327 
Arafat	0.051086 0.017803 -0.024437 0.072980 -0.001748 -0.028971 -0.044451 -0.032951 0.010449 0.017471 -0.061038 -0.073422 -0.103498 -0.035384 -0.036490 0.000988 0.016033 0.085364 0.065461 0.037374 -0.004368 -0.002999 0.072537 0.073422 -0.032730 0.111460 -0.101729 -0.088460 0.099075 -0.074307 -0.009122 -0.084922 -0.060153 0.031625 -0.112344 -0.007630 0.096422 0.042682 -0.053076 -0.027312 0.084922 0.011445 0.084479 -0.028971 0.065018 0.019019 -0.012661 -0.069441 -0.053297 0.030519 0.021230 -0.089787 -0.079172 0.026649 -0.111902 0.065018 -0.057057 0.021120 0.015812 -0.037817 0.028307 0.049980 0.071653 -0.019019 0.039144 0.017913 -0.089787 -0.009565 0.010836 -0.031182 -0.092441 0.073864 -0.019351 -0.031182 0.018908 -0.107479 -0.006552 -0.025653 0.086249 0.005169 0.031403 0.001672 -0.002599 0.050201 0.019572 0.045999 -0.013932 0.004423 0.022004 0.016255 -0.002129 -0.031182 -0.078287 -0.080941 0.011942 -0.057941 0.068999 0.075633 -0.028528 -0.030076 0.045999 0.012053 0.022226 -0.047547 -0.010947 -0.022336 -0.053740 -0.025211 -0.092441 0.017250 -0.006441 0.002433 0.060595 -0.016365 -0.000203 -0.024548 0.004119 0.007906 -0.030076 0.051086 -0.065461 -0.016586 -0.040249 -0.032288 0.019130 -0.038480 0.016586 0.040471 -0.000328 0.041134 0.003234 0.023221 0.089787 -0.034057 0.005971 -0.044230 0.028307 0.001527 0.042903 0.060153 0.061922 0.030519 0.014264 0.054403 0.009012 -0.049980 0.055951 -0.065461 -0.044230 0.088903 0.027644 -0.067672 -0.051970 0.029634 -0.084037 -0.065461 0.030298 -0.019130 0.010062 0.058384 -0.069441 0.008183 0.035163 -0.026427 -0.054403 -0.163651 -0.003110 0.025322 -0.025653 0.014264 -0.030519 -0.019682 -0.098633 -0.049980 -0.047769 -0.014707 -0.030076 -0.104383 -0.038259 -0.164536 -0.028528 0.079172 -0.017803 -0.088018 0.033173 0.085806 0.015149 0.058826 0.056393 0.037153 -0.027533 0.176036 0.001396 0.021673 -0.078287 0.113229 -0.026206 -0.100845 0.019572 -0.128267 -0.059268 -0.018134 -0.142421 0.008735 0.058826 -0.099960 0.106595 -0.035163 0.043345 -0.117652 -0.089345 -0.012937 0.007409 0.040471 -0.020125 -0.078730 -0.153036 0.038480 -0.011113 -0.098633 -0.028750 -0.056172 -0.032067 0.022336 0.045999 0.004147 0.040249 -0.040028 0.082710 -0.002032 -0.090229 -0.031846 -0.019572 -0.036711 -0.000508 -0.142421 -0.017471 0.061480 0.049538 -0.021562 0.110575 -0.112787 -0.005943 -0.034942 0.026980 0.005252 0.002792 -0.028528 -0.108364 0.016476 -0.032951 0.003055 -0.044894 0.049095 0.064576 0.097749 -0.087133 -0.000625 0.043345 0.074749 -0.012274 0.131806 -0.022115 0.002294 -0.015481 -0.052634 -0.068999 -0.017029 0.025322 0.022115 0.042682 0.079614 -0.029855 0.003455 0.026649 0.016255 0.119421 0.012108 0.034721 -0.009509 -0.065461 -0.024990 -0.027865 -0.003815 0.047547 -0.037596 0.000047 0.078287 -0.056615 -0.022226 -0.077845 0.006220 -0.036711 -0.057499 -0.158344 0.104825 -0.072980 -0.046442 0.039807 0.078730 
architecture	0.021486 -0.009619 0.050967 0.068622 0.049302 0.047969 0.057963 -0.132581 0.048968 0.097271 -0.045970 -0.040640 -0.085278 -0.035311 -0.014324 -0.032812 -0.085945 -0.025983 -0.076617 -0.004247 -0.077617 0.092607 0.013908 0.043305 0.050634 -0.019404 0.038309 0.044638 0.026649 -0.155899 0.074952 0.062959 -0.030647 0.008994 0.053299 -0.106598 0.058629 -0.047969 0.009577 0.036643 -0.035810 -0.014324 0.055964 0.096604 0.039141 -0.013575 -0.061627 -0.072620 0.024484 0.117924 0.018738 0.020737 -0.052633 -0.046303 -0.004580 0.127917 0.013408 -0.042639 0.036643 -0.021986 0.079615 0.021320 -0.047303 -0.035144 -0.034311 -0.016573 -0.022485 0.087943 -0.039808 0.036310 -0.052300 -0.034311 0.076950 -0.098603 -0.008286 -0.013325 0.015823 0.000074 0.062293 0.003081 0.032146 0.028981 -0.041473 -0.041307 0.010993 0.023318 0.008828 0.023318 -0.047969 0.027316 0.042139 -0.154567 -0.107264 0.071287 0.005018 0.041473 -0.123254 -0.098603 -0.047969 -0.097937 -0.063292 0.018738 -0.016822 0.068955 -0.029481 0.058962 -0.044971 0.071287 -0.107264 -0.014324 -0.035977 0.009702 -0.010577 0.015657 0.103267 0.004934 -0.017655 -0.027149 0.111262 -0.023152 -0.046970 -0.041973 0.109263 0.017572 0.075618 0.060628 -0.041640 0.106598 0.006079 -0.032979 0.044971 -0.050967 -0.025817 0.005330 0.078616 0.045637 0.008161 0.039641 -0.034811 0.035810 0.010243 0.001457 -0.046637 0.085945 -0.082946 -0.022485 -0.010118 0.061294 -0.045970 0.020154 0.000061 0.008453 0.035477 -0.002727 -0.041473 -0.021320 -0.003935 0.035477 0.004768 -0.113260 -0.048968 -0.027316 -0.084945 0.039308 0.047969 0.095938 0.049302 -0.066291 -0.084279 -0.032979 -0.086611 0.086611 0.004539 -0.009785 0.079615 0.033145 0.087943 -0.054298 -0.027815 0.047969 -0.119923 0.052300 0.004455 -0.033645 0.061294 -0.113260 0.103267 -0.001213 -0.035144 -0.061960 -0.005705 -0.073619 0.024318 0.023318 -0.088609 -0.024984 0.047303 0.039308 -0.002873 0.020487 -0.050634 0.090608 0.046637 0.051633 -0.061627 0.062293 0.062959 -0.058629 0.043305 -0.012492 -0.087277 -0.025317 0.029314 0.027649 -0.062293 0.083280 -0.086611 0.065624 -0.028648 0.010826 0.007787 -0.061294 -0.010910 0.046637 -0.110595 -0.012076 -0.045304 0.050967 -0.037476 0.047303 -0.049302 -0.013908 -0.028981 -0.045304 0.040640 -0.080615 0.071287 0.064292 0.045637 -0.019904 0.081947 -0.087943 -0.015906 -0.025650 -0.003206 -0.099936 -0.096604 0.029814 -0.042306 -0.018488 0.040474 -0.007787 -0.021486 0.010410 0.007454 -0.094606 -0.043972 0.007662 -0.143241 0.030480 0.097937 -0.035144 -0.017905 -0.041973 0.011992 0.058296 0.058962 -0.084945 -0.129916 -0.072287 -0.006621 -0.069289 0.018571 0.014740 0.026150 -0.059628 0.024318 0.044305 -0.082280 -0.017988 -0.018571 0.106598 -0.008036 -0.000419 0.022985 0.021236 0.011409 -0.034811 -0.011742 0.068622 -0.194541 -0.005663 0.011243 0.039141 0.044638 0.036476 0.041307 -0.095272 0.069955 0.075618 
archive	0.015006 0.092970 -0.000751 -0.021550 0.135393 0.046033 0.037007 0.021550 0.161568 0.036105 -0.046936 -0.030238 -0.018729 0.021099 -0.026966 0.026402 0.110119 0.064988 0.064086 -0.095677 0.079430 -0.022678 -0.000178 0.128172 -0.020760 -0.029109 -0.018616 0.015909 0.016698 -0.123659 0.011226 -0.025612 -0.042874 0.041520 0.039715 -0.048290 -0.042197 -0.090713 0.017601 0.093872 0.019068 -0.044905 -0.035653 -0.052803 0.025837 -0.038361 -0.065891 -0.125464 -0.060475 -0.107863 0.026853 -0.085297 -0.021888 -0.030012 -0.053254 0.025160 0.026176 -0.072209 -0.016924 0.021550 0.081687 -0.030689 0.014047 -0.054608 -0.087103 -0.035653 -0.104704 -0.007841 0.106509 -0.053706 -0.026514 -0.020535 -0.001495 -0.142614 -0.022001 0.042874 0.038136 -0.103350 -0.017827 -0.074917 -0.049193 0.009421 0.053480 -0.013257 0.002214 0.033397 0.020535 -0.009026 -0.016247 0.040843 -0.063635 -0.057768 -0.024935 -0.022904 -0.016247 -0.096129 0.090262 0.014442 0.101093 0.043551 0.006459 0.067696 0.024596 -0.043100 -0.048290 -0.063183 -0.013878 0.026063 -0.123659 0.011057 -0.010662 0.073112 -0.042649 -0.032946 -0.043100 0.053706 -0.098837 -0.026966 0.173303 0.025725 -0.063183 -0.053931 0.016473 0.055060 0.036105 -0.046033 -0.013878 -0.015006 0.006375 0.040392 0.069050 0.044680 -0.114181 0.075820 0.050772 -0.091164 -0.073112 -0.063635 0.101093 0.036330 0.036330 -0.014329 0.074466 0.045357 0.030238 -0.123659 -0.022453 0.048290 0.004993 0.034525 0.044454 0.042649 -0.049644 0.109668 0.097934 -0.062281 0.018504 0.069050 -0.049870 0.000027 -0.011113 0.128172 0.045582 0.044680 0.107411 -0.026740 0.015457 -0.001474 -0.031366 0.045808 -0.011396 0.081687 0.066794 0.098385 -0.010606 -0.131782 -0.021099 -0.021099 -0.055511 -0.031366 -0.014442 -0.051224 -0.001354 -0.096580 0.038813 0.060927 -0.118243 0.061829 0.139003 0.060927 -0.026514 -0.033622 0.001530 -0.032043 -0.058219 0.035202 0.085297 0.051900 -0.045131 0.024032 -0.083492 0.054383 0.040166 -0.032269 0.036782 -0.026063 0.012806 0.016360 0.052126 0.047839 -0.003977 0.054608 0.075369 0.014780 0.014555 0.044680 0.013144 0.038361 0.061829 -0.006234 -0.068148 0.008801 0.011452 -0.069953 -0.039490 -0.083943 -0.069050 -0.005359 -0.019519 -0.060927 0.019519 -0.029109 0.004823 -0.020535 -0.045357 -0.045582 -0.038587 0.006488 -0.041295 -0.018842 0.047387 0.020196 -0.048290 0.122756 -0.017375 0.106960 -0.061829 0.108765 0.005529 -0.010719 -0.049418 0.115084 -0.143516 0.050321 -0.008011 -0.003314 0.007277 -0.041746 -0.073563 -0.077625 0.060475 0.005839 0.024145 0.022453 0.038361 0.009252 0.017375 -0.005303 -0.048516 0.013878 0.065891 -0.002849 0.023468 0.000201 0.110571 0.041295 0.067696 -0.014103 -0.016811 0.019858 -0.005303 0.034976 -0.030915 0.018052 0.028320 0.000409 0.019858 0.004005 0.102898 0.010606 -0.012862 0.010888 -0.020986 0.083041 0.057768 -0.119145 0.003131 -0.074917 -0.006177 0.068148 
area	-0.035044 0.025454 0.026164 -0.026875 -0.051855 0.027585 -0.125968 -0.050198 0.004528 0.012845 -0.028769 -0.016456 0.056591 -0.095660 -0.026756 -0.092345 -0.048777 0.033860 -0.015391 -0.010241 -0.019298 -0.065825 -0.098501 0.004351 -0.048067 -0.021547 -0.104657 -0.008998 0.001450 -0.067719 0.059906 -0.051382 0.083821 0.022731 -0.027467 -0.071508 -0.029716 -0.123126 0.055170 0.080506 -0.088556 0.084294 0.012905 0.029716 -0.100395 -0.016338 -0.034570 -0.055170 -0.009234 0.032439 0.107499 -0.038359 0.018469 -0.086188 0.015983 -0.024507 0.058959 0.074823 0.000140 0.016101 -0.015983 -0.000692 -0.046883 -0.072929 -0.072929 -0.006926 -0.039306 0.007695 -0.014680 0.057538 -0.058722 0.007991 0.077191 -0.017403 -0.024862 -0.040963 0.017995 -0.010418 0.074349 -0.015095 0.000496 0.054933 0.019890 -0.018706 -0.051618 -0.037885 -0.011129 0.008228 0.104184 -0.030071 0.024152 -0.089030 -0.050908 -0.039779 -0.017759 0.084294 -0.036228 0.031492 0.012609 -0.094239 0.048540 0.073402 0.041910 0.026164 0.028887 -0.040963 0.009234 -0.028295 -0.034807 -0.107972 -0.045699 -0.024388 0.076244 -0.096133 0.041200 -0.041673 0.110814 0.012609 -0.067246 -0.003241 -0.026756 0.024270 -0.091871 0.033860 -0.021902 0.045225 -0.067719 -0.057301 0.130703 -0.031018 0.071034 -0.130703 0.012786 0.019534 -0.005801 -0.072929 0.081926 -0.056827 0.035044 0.125020 0.040253 0.037648 0.005890 -0.007340 0.024388 -0.012490 0.004647 -0.020718 -0.189425 -0.062510 0.080032 0.094239 -0.011957 -0.006630 -0.041200 -0.060616 0.019534 0.015095 0.056354 0.017877 0.029953 0.064878 -0.031965 -0.064404 0.019771 0.086662 0.059432 -0.092345 0.069140 -0.039306 -0.094712 0.044988 -0.053276 -0.074823 0.067246 -0.078138 0.046172 0.007192 -0.007814 -0.014917 -0.095186 -0.066772 0.017759 -0.002679 -0.003078 -0.116496 0.056354 0.037175 0.057538 0.104184 -0.039779 -0.062984 0.015864 0.001332 -0.070561 0.038122 0.011010 -0.013556 -0.035280 -0.025691 -0.030545 -0.017403 -0.015746 -0.098027 0.009590 -0.062510 0.054933 0.042857 0.112234 0.022494 0.028295 -0.050908 -0.149646 0.137333 -0.007459 0.013674 0.005416 0.027703 -0.025691 0.119338 0.007577 -0.005002 -0.072455 -0.090450 -0.044515 0.013970 0.040963 0.026046 -0.015628 -0.049014 0.073402 -0.063457 -0.028177 0.010478 -0.019653 0.058722 0.001154 -0.002072 0.043331 -0.048303 -0.008761 -0.004144 0.068193 -0.105131 -0.053749 0.021902 0.057064 0.010359 0.008287 0.028532 0.013378 -0.020600 0.126915 0.012372 0.065825 -0.047593 0.040253 0.018351 -0.091398 0.052565 -0.119811 -0.064404 0.032439 0.105131 0.109393 0.037885 -0.010182 0.014621 -0.039306 -0.112708 -0.081453 -0.095660 -0.020363 0.001117 0.003996 -0.051618 0.077664 -0.041673 0.031255 -0.049487 -0.066772 -0.024388 0.112234 0.070087 0.020482 0.021074 -0.044988 -0.062510 -0.000074 0.010241 -0.083821 -0.067719 -0.107499 -0.004144 0.071981 -0.047593 -0.080979 -0.077664 0.066299 -0.061090 
arrangement	0.010412 0.016749 -0.080396 0.035309 -0.017111 -0.018288 0.039292 -0.069893 0.013580 -0.022453 -0.044725 -0.085828 -0.031869 -0.070980 -0.178174 0.118058 0.057218 -0.046173 0.026436 -0.046716 0.011000 0.050338 0.009099 -0.040017 0.037844 -0.047078 -0.093433 -0.069169 -0.075688 0.030782 -0.021819 -0.074239 0.027161 0.081120 0.143408 0.056494 0.032231 -0.045449 -0.035309 -0.064823 -0.047078 0.072428 -0.037844 -0.043095 -0.060840 -0.082931 -0.003486 0.026255 -0.057581 -0.020823 0.023720 -0.032050 0.011589 -0.051062 0.054683 -0.054321 -0.056132 0.009280 0.029515 -0.082206 0.063737 -0.019465 -0.136165 0.034585 -0.088363 -0.026074 -0.070256 0.001845 -0.019465 -0.018560 0.062288 0.012313 0.013671 -0.024626 0.008375 -0.061926 -0.076774 -0.028971 0.029515 0.064461 0.056856 -0.027704 0.009144 0.066272 -0.006654 -0.028428 0.013218 0.010955 -0.000291 0.046716 0.004776 0.015391 0.018017 0.041827 0.036214 0.061564 -0.011091 -0.061202 -0.044543 -0.099227 -0.015844 -0.018469 -0.090173 0.035490 -0.017202 0.058667 0.006926 0.019556 -0.118058 0.047441 -0.006066 0.060840 0.077498 -0.063013 0.061564 0.040560 0.057218 -0.051062 0.001573 0.042914 0.067358 -0.096330 0.039836 0.043638 -0.066272 0.032774 -0.022634 -0.054321 0.124577 -0.036033 -0.002422 0.002026 0.010276 0.026799 0.074963 0.029877 -0.044000 0.004029 -0.008737 0.058305 -0.012132 0.043457 -0.022453 0.035128 0.072066 0.055770 -0.086552 0.008737 -0.047078 0.126750 0.091984 0.014305 0.036938 -0.024626 0.044725 -0.068083 -0.026617 0.010638 -0.031687 0.063737 -0.069531 -0.016840 0.024988 0.034766 -0.061564 -0.000461 0.064461 -0.107194 0.032412 0.033317 -0.022996 -0.044000 0.083293 -0.031506 -0.011453 -0.079671 0.090536 -0.108643 -0.016659 0.012041 -0.080033 -0.066272 0.069531 -0.026074 -0.002558 -0.057581 0.087276 0.059753 0.028609 0.032412 -0.119507 -0.050700 0.048527 -0.046173 -0.063737 0.009144 -0.068807 0.003146 0.028971 -0.049613 0.069169 0.021366 0.003259 0.039111 0.039655 -0.032050 0.048165 -0.005772 0.085828 0.066634 -0.036033 -0.095606 0.040741 0.034766 0.026255 -0.038930 0.064823 0.077861 -0.081482 0.011226 0.040017 0.032774 0.043457 0.126025 -0.028971 0.029696 0.010321 0.016477 0.006066 0.086190 -0.000854 0.003191 0.013490 -0.037301 -0.017473 0.064461 0.023901 -0.057943 0.075326 0.050338 -0.020733 -0.065910 0.072791 -0.015119 0.019918 0.005704 0.010140 0.048527 0.056132 -0.003599 0.012222 0.044000 -0.010955 -0.038930 0.000679 0.080033 0.009325 0.067358 -0.045268 0.094157 0.141235 0.030239 -0.037120 0.077498 -0.037301 0.056132 -0.026255 0.044181 -0.223080 0.010864 0.110815 0.001720 0.111540 0.040379 0.072066 0.026255 -0.067721 0.095606 -0.004029 0.023539 -0.033136 0.051424 -0.041284 0.030963 0.141960 -0.122404 0.072791 -0.023539 0.016749 0.016568 -0.136890 0.071342 0.006790 -0.118783 -0.053235 0.118058 0.039292 -0.068807 -0.073515 -0.039655 
arrival	0.027438 0.091918 -0.044244 -0.044587 0.000018 -0.040643 -0.109752 -0.159827 0.031554 0.077170 0.076141 -0.059678 0.044930 -0.005788 -0.021693 -0.036013 -0.039614 0.041672 0.017406 0.073740 -0.059678 0.064137 -0.017235 0.007846 0.028982 0.023837 0.008660 -0.005123 0.022636 0.078199 0.036527 -0.093290 -0.060021 -0.050761 -0.030525 0.018435 -0.022808 0.041843 -0.048017 -0.047331 0.060021 -0.012433 0.033612 -0.000391 0.084029 -0.126215 -0.057277 0.104265 -0.043901 0.066537 0.051446 -0.026066 -0.019721 -0.026924 0.113182 0.025552 -0.028810 -0.016634 0.020150 -0.002079 -0.062765 0.047331 -0.104951 -0.074083 0.024866 0.000431 -0.075798 -0.104951 -0.122100 0.063794 0.031897 0.011918 -0.058992 0.060364 -0.036184 0.019721 -0.070653 0.084372 -0.085744 0.028296 0.137191 0.055562 0.035841 -0.006817 0.045616 -0.075455 -0.015520 -0.037384 0.017320 0.081628 0.111124 -0.059678 0.032068 -0.043901 0.015091 0.038585 -0.028810 0.075798 0.056248 -0.054533 0.036356 -0.014234 0.043387 0.050075 -0.016720 -0.009303 0.026581 0.033269 0.014919 0.007631 0.069281 0.045273 0.023151 -0.045273 -0.049046 -0.021007 0.024866 0.005188 0.033955 0.025552 -0.066537 0.030696 -0.003194 -0.030525 0.065509 0.065509 -0.021179 0.010289 -0.005788 0.102893 0.050761 0.080256 0.031725 -0.068595 -0.081971 -0.021865 0.025723 0.034812 -0.082657 0.063451 -0.053847 -0.013462 -0.104265 0.015177 0.109752 0.064823 0.036698 0.033440 -0.035841 -0.031897 0.009260 0.020836 -0.017578 -0.005959 0.021693 -0.100149 -0.028467 -0.110438 -0.006388 -0.051446 -0.077856 -0.052818 0.076827 -0.048703 -0.048017 -0.081285 0.027610 -0.048017 -0.024351 -0.010847 0.045959 -0.056934 0.115240 -0.063794 0.016034 0.086087 0.007160 -0.066194 0.078542 -0.072368 -0.010589 0.025209 0.129645 -0.086773 0.110438 0.030182 0.005488 -0.074083 0.010761 0.074083 0.060707 0.001533 0.049389 -0.023151 0.055219 0.102893 -0.026924 0.118670 -0.041672 0.010161 0.043558 0.020579 -0.038928 0.012690 0.089174 0.040986 0.087459 0.095347 0.059335 -0.012261 -0.063108 -0.011061 -0.075798 0.013548 -0.074769 0.096033 0.054533 -0.076484 -0.048017 0.014834 -0.091918 0.057963 0.029324 -0.000202 0.037384 -0.062422 -0.008960 0.087459 -0.040128 0.056248 0.095347 0.060707 -0.028982 -0.009603 0.117984 -0.023322 -0.034641 -0.086773 -0.005080 -0.035498 -0.060364 0.017578 -0.048703 -0.100149 -0.096033 0.061050 0.015434 -0.022122 0.008317 0.027438 0.006388 0.041329 0.023665 0.046988 0.035841 0.057277 0.006131 0.100149 -0.048017 0.004652 -0.019635 -0.010718 -0.043215 0.133075 -0.019635 -0.073054 0.102893 -0.072368 -0.004352 0.012776 0.031897 -0.005230 -0.006774 -0.010032 0.060021 -0.045273 0.039614 0.062079 0.011833 0.032411 0.013891 0.045616 0.034298 0.054533 0.070653 0.072711 -0.119356 -0.006045 -0.052818 0.054533 -0.113182 -0.000237 -0.036698 -0.006988 0.181092 0.048360 -0.074426 -0.010975 -0.028810 0.022808 
article	0.060814 -0.025753 -0.091842 0.022495 -0.024046 0.124731 0.091842 -0.006981 0.070123 -0.024357 -0.094324 0.028235 0.013187 0.030562 -0.111700 -0.033200 -0.028235 0.006399 0.022961 -0.093704 0.188649 -0.008455 0.035837 -0.044059 0.007330 0.067951 -0.045300 0.061125 -0.042198 0.022961 0.030873 -0.148313 0.002211 -0.000950 0.104874 0.050885 0.044680 0.062676 0.018229 0.062366 -0.026684 0.049644 0.024977 0.085637 -0.026994 0.012023 0.032269 -0.113562 -0.056160 -0.062986 0.025598 -0.040336 -0.047162 -0.052747 0.021875 -0.024357 0.063607 -0.013342 -0.000356 -0.114803 0.045300 0.048714 -0.056160 0.023271 -0.025598 0.036302 -0.085637 -0.024512 0.063297 0.098048 -0.035837 -0.032889 -0.064227 -0.085016 0.000868 -0.031493 0.067640 -0.027615 -0.014738 0.096807 0.016134 0.003840 0.054299 0.020168 -0.057401 0.007951 0.018229 0.053368 0.002376 -0.047162 0.038785 0.012411 -0.054919 0.080052 -0.041887 0.083154 0.011868 0.005779 0.095565 -0.002870 -0.019004 0.038785 0.011946 -0.056470 0.053368 0.098048 -0.172514 -0.052127 0.023891 -0.024822 -0.024046 0.067640 -0.048403 -0.030717 0.018462 -0.044990 0.119146 0.001648 0.085016 -0.065779 0.047472 -0.083775 -0.078190 -0.037699 -0.005081 0.010782 0.013419 -0.039250 -0.020478 0.015824 -0.148933 -0.082534 -0.013807 0.016600 0.046542 -0.073225 0.006555 -0.056470 -0.003859 -0.006128 0.086878 0.098668 -0.048714 -0.037699 0.053988 0.005391 0.043749 0.008998 -0.021719 -0.046542 0.076949 0.034441 0.017376 0.002676 0.111079 -0.131558 -0.081293 -0.035837 0.007175 -0.043749 0.106735 0.013187 0.076328 -0.048093 0.076018 -0.051816 0.142728 0.020323 -0.020633 0.039715 0.038474 -0.032424 -0.103633 -0.056160 -0.072295 0.024977 0.034751 -0.070743 0.002676 -0.032424 -0.073846 -0.008765 0.033200 -0.013342 -0.009037 0.044059 -0.084395 0.068882 0.003180 0.068261 0.056160 0.014971 -0.060504 -0.004131 -0.000708 0.060814 0.012799 0.009386 0.048714 -0.028701 -0.060504 0.112941 -0.064227 0.047162 -0.090601 0.034751 -0.038319 0.066089 -0.006593 -0.001416 -0.024667 0.025908 -0.019160 0.044990 -0.003064 0.071674 0.008765 0.011868 0.024667 -0.044680 0.126593 0.015747 0.029321 -0.038164 0.090601 -0.028235 0.051196 0.012023 -0.068882 0.001348 0.080672 0.055850 0.007835 -0.034906 -0.005779 0.061745 0.103012 0.166309 0.000196 -0.050265 0.016367 -0.003975 -0.051506 -0.103012 0.017298 0.020944 -0.023116 0.080052 -0.020323 0.062055 0.040957 0.037388 -0.111079 0.005236 0.050885 -0.125973 0.033510 0.042508 -0.016988 0.049955 0.043129 0.026684 -0.001071 -0.020633 0.051816 0.026063 -0.100530 -0.011015 -0.065779 -0.033820 0.072605 -0.004441 0.025288 0.066399 -0.036302 0.032579 0.053057 -0.076328 0.053368 0.028856 0.082534 0.049955 -0.042198 0.034286 0.005973 -0.003471 -0.039715 0.096186 -0.039095 0.031803 0.026374 -0.158241 -0.007214 0.041577 0.008571 -0.037078 -0.023271 -0.101150 -0.030097 -0.008959 
artifact	0.080755 0.038037 -0.022383 0.015434 -0.064662 0.090703 0.116451 -0.009948 0.087192 0.024724 -0.036720 -0.133421 -0.048277 -0.054129 0.004389 -0.000094 -0.028089 0.033648 -0.008668 -0.063200 -0.032039 -0.008595 -0.003420 -0.005267 -0.029552 -0.024431 -0.043889 0.083681 0.024285 -0.124643 -0.023992 -0.049155 -0.059396 0.099481 -0.018067 -0.013898 0.036281 -0.048570 0.068759 0.032916 0.008485 0.088362 0.124058 -0.002524 0.009875 -0.046522 -0.051496 0.105918 0.005340 -0.055007 -0.053837 -0.004462 -0.024285 -0.155658 -0.038037 0.064955 -0.012362 -0.053837 0.009875 -0.015288 0.101821 -0.043011 -0.026187 -0.038329 -0.166191 -0.038329 -0.060566 -0.132251 0.018872 -0.055592 -0.031161 -0.044474 -0.055592 -0.157999 -0.061444 0.021652 0.083681 0.031161 0.040377 -0.082510 0.032624 -0.035403 0.098310 -0.112940 -0.052081 0.003840 0.038037 -0.020335 0.062907 0.054422 0.004425 -0.109429 -0.000537 0.048863 0.102407 -0.012801 0.032770 0.071392 -0.006144 -0.025894 0.020335 0.034818 0.036135 -0.050618 0.036281 -0.039792 -0.022237 -0.026626 -0.018726 -0.062322 -0.034672 0.094799 -0.005193 0.059688 -0.023407 0.065540 0.034818 0.017702 0.059688 -0.005157 0.007607 -0.029991 0.090703 0.026041 -0.002670 -0.021652 0.063492 -0.038915 0.016604 0.104747 0.015068 -0.065540 -0.072270 0.062614 0.005888 0.015361 -0.027650 -0.069929 -0.062029 0.091873 0.050618 -0.040377 0.038037 0.093629 0.036720 -0.005925 0.003456 0.019604 -0.040670 -0.039500 -0.020481 0.026772 -0.115866 0.114110 0.032185 -0.035111 -0.042133 0.038622 -0.028674 -0.016678 0.029991 -0.074903 0.074318 -0.037159 0.007315 0.020042 0.071977 -0.059103 -0.084851 0.131666 0.031307 0.063492 -0.016092 0.011411 0.098310 -0.057055 -0.035696 -0.051496 0.048863 -0.053837 -0.071099 -0.059396 0.073148 -0.013386 -0.004681 0.006766 0.033940 0.021798 0.013459 0.062907 -0.036427 0.035696 0.053251 0.038037 -0.061737 -0.024285 0.038329 0.002039 -0.003127 0.039207 -0.032916 -0.068466 -0.137517 -0.048863 -0.019457 0.050326 -0.016751 0.017629 0.044181 0.050618 -0.006108 0.062029 -0.047692 -0.034379 -0.064370 0.114110 -0.050033 0.022676 0.010972 -0.038915 0.021067 0.005742 -0.053544 0.044181 -0.024578 -0.000574 -0.010094 0.066711 -0.026918 -0.003072 0.009582 -0.047985 -0.203643 -0.084851 -0.047692 -0.063492 0.002469 0.001966 0.100066 0.035257 0.107088 -0.150977 0.110014 -0.065833 0.006766 -0.022822 -0.014849 0.030429 0.112940 -0.000036 -0.048570 -0.009436 -0.052374 -0.042426 -0.061737 -0.048863 0.097725 -0.103577 0.016604 -0.058518 0.043596 -0.055300 -0.009107 -0.050618 -0.050911 0.062614 -0.009729 -0.055007 -0.010460 -0.034526 -0.024870 0.041840 0.055007 0.031307 0.067296 -0.059981 0.025748 -0.004005 -0.078999 0.061151 0.028089 0.043303 0.095970 -0.028089 0.002542 -0.120547 -0.003840 -0.064955 -0.003383 0.001234 -0.077244 -0.055885 -0.026772 0.069636 0.033063 0.018726 -0.004681 0.062322 0.068759 0.005449 
association	-0.083167 -0.115335 0.014319 -0.034522 0.031580 0.036287 0.025892 -0.048252 0.013338 0.051391 -0.045899 -0.037857 -0.031188 0.018340 -0.107489 0.046683 0.068260 0.047468 -0.053352 -0.071398 -0.005541 0.062767 -0.083167 -0.044329 -0.068652 0.028049 -0.090620 0.105135 -0.040995 -0.099251 0.069044 -0.112981 0.146719 0.007601 0.152996 0.014613 0.036484 0.024617 0.080028 -0.052960 0.038249 0.020105 -0.058060 0.053352 -0.100428 -0.124750 -0.022361 -0.020596 -0.135735 0.013632 0.055706 0.032757 0.024813 -0.004242 0.075713 -0.006081 -0.077675 -0.045310 -0.060414 0.029030 0.039622 0.018242 -0.013240 0.018536 -0.069829 -0.000052 -0.013044 -0.089444 0.110628 0.011769 0.023734 0.046879 0.101997 -0.069044 -0.108274 0.013044 -0.035503 0.018046 0.135735 0.060021 0.031776 -0.110628 0.038641 0.060021 -0.049822 -0.011818 -0.099251 -0.045310 0.052175 0.094543 0.041583 -0.046879 0.030991 -0.061591 -0.062375 -0.004732 0.047860 0.017948 -0.007012 -0.077675 0.023145 0.025303 -0.064337 0.080028 0.029422 -0.033345 -0.032168 -0.064729 0.099643 -0.047860 -0.076105 0.026872 0.067083 0.002636 0.092974 -0.008042 0.022263 -0.028441 0.007503 0.079636 -0.043153 -0.012652 -0.018340 -0.019321 0.045310 0.017457 -0.096897 -0.003678 0.052175 0.064337 0.059237 0.013142 -0.025303 -0.103566 -0.056883 0.013240 0.026284 0.094151 -0.007797 -0.080813 -0.081205 -0.040603 -0.030011 0.002991 -0.041780 -0.065121 -0.009023 0.007110 -0.015790 0.048252 -0.084344 -0.052960 -0.137304 0.031188 0.091013 -0.030207 0.085521 -0.017163 0.119258 0.015888 0.070221 -0.018046 0.071398 -0.095720 0.033345 0.050999 0.044526 -0.009415 0.105135 0.045310 0.072967 -0.011965 0.095720 -0.087874 0.014907 -0.056883 0.086697 -0.083167 0.081598 0.145934 -0.062767 -0.023342 0.029226 0.038249 0.094543 0.007208 -0.021086 0.023342 0.014809 0.033541 -0.062375 0.066690 -0.017751 0.019811 -0.003776 -0.034914 0.007110 -0.000379 0.003457 0.017065 -0.004021 -0.051391 0.009464 -0.023538 0.034718 -0.007208 0.029030 -0.064337 0.032561 0.040799 0.002035 -0.103566 -0.056491 0.011131 0.007650 0.013436 -0.025499 0.059629 -0.010690 -0.040603 -0.012112 -0.008336 -0.001655 0.075321 0.041780 0.001201 0.081990 0.033934 0.040210 0.003028 -0.050214 -0.018634 -0.071398 0.006816 -0.030599 0.030991 0.077282 -0.015496 0.009513 -0.079636 -0.041583 -0.113766 0.032757 0.061198 -0.040407 0.104351 -0.045114 0.003285 0.077675 -0.089836 0.164764 -0.045310 -0.022655 -0.082382 0.046291 -0.005247 -0.071398 -0.045114 -0.043545 0.097289 -0.116904 -0.012063 0.011916 0.096505 0.038837 0.015888 -0.017653 0.026480 0.039230 0.019811 0.033934 -0.037268 0.003702 0.041976 -0.020596 -0.095720 -0.067475 0.056883 -0.023832 -0.004266 -0.030991 -0.024715 0.014711 -0.024420 -0.058060 0.036091 -0.083167 -0.052960 0.069829 -0.002023 -0.003898 -0.004389 -0.045506 -0.026088 0.022459 -0.065121 0.005296 0.007552 -0.066298 -0.005296 
astronomer	0.017406 -0.072250 0.062616 -0.011221 0.062616 0.086262 0.026820 -0.073563 0.061303 -0.030651 0.038095 -0.042912 -0.034373 -0.009579 -0.054297 0.069622 0.051450 0.059113 0.059113 -0.031308 -0.022988 0.006869 0.035249 -0.095457 0.018829 -0.058675 -0.011275 -0.001108 -0.059551 -0.044007 -0.064368 0.017843 0.013903 0.012698 0.086262 -0.107280 0.005939 0.047728 0.015216 0.072687 0.046196 0.017406 0.023536 0.139244 0.020361 -0.117351 -0.005556 -0.048604 -0.004516 -0.105090 -0.033935 -0.009141 -0.029557 -0.060865 -0.048823 -0.078380 0.044007 -0.068309 -0.053640 -0.097208 -0.030651 -0.021675 -0.025178 0.010016 -0.026491 0.000937 -0.015435 0.040504 0.031089 0.014888 -0.014778 -0.037001 -0.038314 -0.007718 -0.097208 0.088013 -0.054297 0.007389 -0.042474 0.008101 0.133114 0.065243 0.043131 -0.097208 -0.013246 -0.022441 0.066119 0.013027 -0.008812 0.060427 -0.001519 -0.081007 -0.106842 0.044444 -0.006240 0.095895 0.093268 0.020252 0.104652 -0.065681 -0.005008 -0.044663 0.006021 -0.038971 0.083634 0.053859 -0.005200 0.147126 -0.054297 -0.005528 -0.036125 -0.033716 0.055172 0.029119 0.064806 0.043569 -0.022770 0.016420 0.136617 0.034373 0.029994 0.018938 0.032622 -0.051888 -0.018719 -0.038971 -0.072687 -0.038533 -0.023645 0.099398 0.035030 -0.071374 -0.015654 0.078380 0.056924 0.025397 -0.077942 0.051231 -0.014121 0.167269 -0.016749 0.030651 -0.055610 0.016968 0.038533 0.043131 0.030213 -0.077504 -0.014669 0.025616 0.092830 -0.084510 -0.104652 0.000527 0.058237 -0.064368 0.074001 -0.015107 -0.005145 -0.073563 -0.064806 -0.020690 0.119102 0.021894 0.097208 0.089765 0.094581 0.014559 0.019814 -0.024849 0.055172 0.057800 0.024959 0.154132 0.001129 0.042255 -0.082759 0.034154 0.079693 -0.045758 -0.001553 0.049480 0.020580 -0.010016 0.003667 -0.000342 -0.041160 -0.054297 -0.078818 0.001902 -0.007991 0.021565 0.071812 0.073125 -0.085386 0.070936 0.005063 0.024412 0.055391 0.028681 -0.036125 -0.065243 -0.027696 0.005556 0.006322 -0.002846 -0.020690 -0.029994 0.011275 -0.035687 -0.032841 0.026929 0.173399 -0.046196 -0.013027 0.059989 0.024740 -0.023536 0.023536 -0.093705 0.064806 -0.076628 0.071374 0.016639 -0.107280 0.010181 0.055172 -0.008046 0.046196 0.026820 0.036563 -0.050575 -0.098960 0.029557 0.114723 -0.056486 0.004899 -0.111658 0.002983 -0.011604 0.012534 -0.130487 -0.066119 -0.031089 -0.004160 -0.044444 -0.023864 0.001526 0.001669 0.007389 -0.067433 -0.132238 -0.003202 0.088889 -0.015435 -0.072250 -0.030432 -0.125232 -0.083196 -0.085824 -0.036563 -0.139244 0.001375 0.026820 0.023207 0.055610 0.020799 -0.017406 0.040941 -0.011002 0.001806 -0.098522 -0.051450 0.097646 -0.011275 0.039190 0.003558 -0.045320 0.060427 -0.034154 -0.002354 0.066995 0.028900 0.070060 0.039190 -0.029776 0.038971 -0.011056 0.040285 -0.014121 0.093268 -0.008758 -0.070498 0.059551 0.031965 0.098522 -0.070498 0.024521 0.037657 -0.031089 
asylum	-0.103744 0.041905 0.079280 0.004360 -0.007107 0.027861 -0.015743 -0.033524 -0.002053 0.010476 0.091512 -0.030806 0.035789 0.064330 0.033977 -0.066142 0.053684 0.088794 -0.038054 -0.049380 0.052098 0.065236 0.108274 0.000800 0.042358 -0.080186 0.006314 0.049607 -0.004728 -0.028541 0.032165 -0.020839 -0.017781 0.094230 -0.053231 -0.033751 -0.067501 -0.012458 -0.024803 0.027748 -0.013138 -0.054137 0.086529 0.049833 -0.034883 0.042358 -0.096042 0.055496 0.005748 0.029447 -0.010137 -0.008324 -0.022312 0.013761 -0.081998 -0.157654 -0.118694 0.045756 -0.104197 -0.027069 0.101479 0.000197 0.059347 -0.079733 0.012911 -0.034657 0.031259 -0.005521 0.004049 -0.016762 -0.032845 0.027182 0.080186 0.006003 -0.068407 -0.043491 0.085170 0.005097 0.053231 0.030126 -0.025030 0.032845 0.016649 0.013478 0.004162 0.008211 0.033524 -0.001133 -0.023105 -0.107821 0.092871 -0.048927 -0.111445 0.003553 0.118694 0.031712 0.048474 -0.054364 0.128660 -0.093324 0.050739 0.043038 -0.006512 -0.002279 0.005918 -0.048701 -0.011949 -0.051192 0.025030 -0.004275 0.015063 0.024917 0.078827 0.114163 -0.098307 -0.070220 0.034883 -0.012968 0.127754 0.061159 -0.072485 0.024690 0.005804 0.044397 -0.030580 -0.077468 -0.025596 0.016536 -0.052098 -0.050966 0.142251 -0.048927 -0.067954 -0.044397 -0.069767 -0.017102 -0.071579 -0.002024 0.086529 0.106462 -0.052098 0.046662 0.020953 0.078827 -0.013308 0.094230 -0.041226 0.027182 -0.116882 0.044623 0.079733 -0.064783 0.038281 0.013421 0.016649 -0.083811 -0.037601 0.037375 0.049833 -0.101479 -0.075656 0.003171 0.031939 -0.000213 -0.055043 0.003553 -0.039640 -0.058441 -0.033071 0.115523 0.072032 0.002803 -0.074297 -0.045529 -0.072032 0.071579 -0.002662 0.000320 0.002194 -0.043944 -0.121412 -0.089247 -0.028994 -0.110992 0.120506 -0.016196 0.024690 -0.021745 0.012005 -0.064330 0.010306 0.023105 0.022425 -0.000665 0.101932 0.063424 -0.036469 -0.061159 -0.161279 0.009061 0.053911 0.001069 -0.003737 0.038508 0.024803 -0.057761 0.046889 0.020386 0.017442 0.053458 0.048927 0.073391 0.082904 -0.070220 -0.046436 -0.042358 -0.033071 0.048927 -0.011382 -0.025143 -0.106009 0.086076 -0.059347 0.024577 -0.016649 -0.067501 0.035110 0.122318 -0.086529 0.039640 0.026502 -0.021859 -0.027975 -0.042585 0.042358 -0.036695 0.081092 0.001621 -0.036242 -0.044850 0.031033 0.022991 -0.037601 0.012798 0.021406 0.026615 -0.031259 -0.081092 -0.035789 -0.070220 0.072485 -0.048927 -0.004021 0.194803 0.006767 0.038961 0.038054 0.020500 0.053004 -0.011722 0.014950 0.032618 -0.051192 0.052778 0.026502 -0.017102 -0.057988 -0.018801 -0.075656 -0.061612 0.005578 0.084264 0.086529 -0.029447 -0.060706 0.031486 -0.082451 -0.061159 -0.001840 0.008098 -0.006314 -0.034430 -0.053004 0.038508 -0.017668 -0.035563 0.061612 0.032845 -0.038054 0.007815 -0.048701 0.036695 -0.020726 -0.048021 0.068861 0.157654 0.048701 0.005068 0.062065 0.066595 
atmosphere	0.043935 0.094995 0.065309 -0.090839 -0.090839 -0.002802 -0.039779 -0.085496 -0.081934 0.011429 -0.088464 -0.049873 0.124088 -0.059372 -0.047498 0.109245 -0.067387 0.111026 0.109838 -0.046310 0.064419 -0.006197 0.034287 -0.087277 -0.089058 -0.060263 -0.041560 0.000061 -0.036217 -0.006123 -0.082527 -0.115776 0.051951 0.042451 -0.030428 -0.032061 -0.034584 -0.112213 0.027311 0.057888 -0.016698 -0.121713 -0.013285 0.064716 -0.026866 -0.085496 -0.075699 0.040967 -0.119338 0.046904 0.063528 0.070950 -0.005900 -0.035920 0.095589 -0.046013 0.048982 -0.013507 -0.023452 -0.058482 -0.094995 -0.040670 -0.038889 0.042451 -0.012988 0.034733 -0.009871 0.021077 0.042154 0.087277 -0.052247 0.005974 0.067981 -0.039482 -0.066200 -0.124681 0.038295 0.019148 0.012617 -0.011949 0.095589 -0.019148 0.015214 -0.077184 -0.071840 -0.040076 -0.053732 0.048982 0.014027 0.021077 0.004694 -0.035178 -0.036217 0.008089 0.015214 0.076590 -0.003933 0.061153 -0.000086 -0.078371 0.015214 0.042451 -0.075403 -0.001252 -0.027608 -0.002050 0.032952 0.035326 -0.115776 -0.071840 -0.056404 0.102714 0.046310 -0.047498 -0.032506 -0.061450 0.005937 0.032655 -0.047795 0.034139 -0.055513 -0.044232 0.098558 0.049873 -0.027905 0.004471 -0.009388 -0.055810 -0.025678 -0.059966 -0.018554 0.028053 0.002152 0.007644 0.018925 0.048091 -0.015288 -0.019444 -0.073028 -0.016179 0.000457 0.018480 0.029538 -0.067981 0.076590 0.003952 -0.048982 0.079559 -0.063231 0.047795 0.003414 0.047795 -0.039186 0.024194 0.023155 -0.100339 0.100339 -0.032061 -0.109838 -0.005010 -0.079559 -0.000677 -0.025827 0.092027 0.062044 0.021226 0.003247 0.035623 0.040967 0.085496 -0.078371 -0.025382 0.041264 -0.013136 -0.015808 0.016327 -0.046904 0.026124 -0.064716 -0.035178 -0.048685 -0.018257 0.093214 0.025827 0.059372 -0.053138 0.027608 0.039186 -0.036217 0.009722 -0.032506 0.075699 0.016847 0.026272 -0.031616 -0.022561 0.007384 0.118151 -0.068872 -0.001679 0.030131 0.094995 -0.108057 -0.100933 0.074512 -0.137150 0.118744 0.002950 -0.061153 0.004304 0.040076 0.040076 0.087277 0.042748 0.004082 0.021819 -0.035030 0.072434 -0.061153 -0.048685 0.063528 -0.004397 0.036514 0.016253 -0.014324 0.052544 0.151993 -0.013507 0.056700 0.019148 -0.065309 -0.007830 0.016624 0.003859 0.068278 -0.056997 -0.103307 -0.027311 0.099151 -0.013952 0.027905 -0.013210 0.040373 -0.087277 -0.050763 0.028944 -0.065012 0.012913 0.026866 0.064122 -0.022710 0.065012 0.010093 0.084902 -0.044529 -0.072434 0.056107 0.013136 -0.015882 -0.005937 0.053138 -0.124681 -0.025975 0.075403 -0.014249 0.081934 0.033397 -0.037256 0.006011 -0.025530 -0.053138 0.009722 -0.011132 0.094995 -0.052544 -0.054029 -0.058778 -0.011874 0.008906 -0.113994 0.002542 -0.099151 -0.054029 -0.018331 0.061153 -0.109838 0.015288 -0.057294 0.014917 0.033991 -0.169804 0.051654 -0.071543 0.054325 -0.029241 0.037404 0.058482 -0.048091 0.028053 -0.039779 
attempt	0.082048 0.063597 -0.021788 -0.003901 0.000739 -0.028265 0.127194 -0.025517 -0.044754 -0.027284 -0.093825 -0.073019 -0.050250 -0.112277 -0.071841 -0.035135 0.050250 0.049857 0.095396 -0.017273 0.055746 0.044165 0.048090 -0.077337 -0.041417 -0.094218 -0.055353 0.108351 -0.016881 0.044754 0.146038 -0.062027 0.021297 -0.069878 -0.008784 0.142112 0.135046 0.007704 0.032976 0.000082 0.028854 -0.002539 0.001049 -0.038276 -0.063597 0.017862 -0.066738 0.046716 0.001233 0.002944 -0.040239 0.031210 0.045539 0.076945 0.013544 0.062419 0.020512 -0.005619 0.073412 0.027088 0.017568 0.001963 -0.081263 -0.066738 -0.014427 -0.040239 0.016979 0.114632 -0.016586 -0.021788 -0.069093 -0.012759 -0.034743 0.082048 -0.054961 -0.008784 0.028462 -0.001754 0.056138 -0.069486 -0.005570 -0.012955 -0.008833 -0.052998 0.008440 0.001031 0.041809 0.022475 -0.052998 0.082833 0.054961 -0.056531 -0.013446 -0.032191 0.054175 -0.063990 -0.034743 0.020806 0.021101 0.089900 0.143683 0.038080 0.027873 0.014525 0.000963 0.063205 0.001951 -0.005275 0.003006 0.036902 -0.135831 -0.027480 -0.093825 0.011188 -0.021493 0.087544 0.011630 0.015997 -0.019040 0.098929 0.007753 0.039454 0.021886 -0.078515 0.026106 -0.074197 0.036706 -0.100499 -0.009029 0.015016 -0.010207 0.037884 0.006477 0.011532 0.002331 -0.010943 0.002196 -0.038669 -0.065167 0.015899 0.024438 -0.034547 -0.033565 0.046716 0.080478 0.078908 -0.062812 0.020708 0.031995 0.060849 0.010305 0.023849 0.047894 0.045931 0.020316 -0.050642 -0.026499 0.001668 0.015507 -0.025714 -0.043968 0.092648 0.034154 -0.089115 -0.071056 -0.055353 0.171163 -0.057709 0.103640 -0.032584 0.056923 0.012170 -0.157815 -0.048483 0.025321 -0.035332 0.049661 0.020905 0.034743 -0.014133 -0.030228 -0.007704 -0.030425 0.000090 0.053783 -0.018844 -0.047698 0.053783 0.105995 -0.065560 -0.056923 -0.030032 0.096966 0.042398 -0.010354 -0.041220 0.071841 0.089115 -0.080478 -0.040828 0.091863 0.089507 -0.003582 0.055746 0.142897 0.041220 0.064775 0.009618 -0.022475 -0.012072 -0.025321 0.093040 -0.050053 0.121698 -0.031013 0.028462 0.027677 0.077730 0.045931 -0.024732 0.012317 -0.003190 0.035921 0.001294 -0.000445 0.100499 0.085974 -0.043968 0.068308 -0.010011 0.131905 -0.006036 -0.050053 0.020119 0.041024 -0.007802 0.050250 -0.053783 -0.026891 -0.022769 -0.017077 0.019040 0.062027 -0.126409 -0.016783 0.080870 -0.016783 0.083226 0.063597 0.055353 -0.073019 -0.060849 -0.015899 0.092255 0.087152 0.048483 0.113062 -0.003165 0.012023 -0.022671 -0.129550 0.105210 0.005962 0.039846 -0.015409 -0.000595 0.017568 -0.007164 -0.081263 0.027088 -0.019923 0.023260 0.051820 0.067916 -0.010207 -0.022769 -0.006379 -0.111491 0.037491 0.179799 -0.027284 -0.066738 0.009127 0.049661 -0.078122 -0.074197 -0.052998 0.029247 -0.056531 -0.076160 -0.068308 -0.018942 -0.022082 -0.007753 -0.060457 -0.013249 -0.012219 0.012317 -0.073804 0.011679 
attitude	0.039048 0.084154 0.009846 -0.001967 -0.094253 -0.013381 0.011277 -0.069007 0.001641 0.025583 0.028108 -0.035008 0.080452 -0.003850 -0.097619 0.096946 -0.019692 0.150805 -0.010688 -0.080115 0.080788 0.019356 0.066314 0.065640 0.000317 0.039553 -0.038543 0.007153 0.066314 0.064967 -0.052176 0.006312 0.039721 0.043087 0.069343 0.018262 0.069680 0.037869 0.001546 -0.051503 0.129261 -0.083145 -0.080788 -0.009720 -0.026256 -0.078769 -0.120509 -0.021544 -0.100985 0.018093 0.005512 0.109064 0.008668 -0.043087 0.096273 0.004692 -0.051839 0.021039 -0.024573 -0.017672 0.016747 0.056215 -0.083818 0.038038 -0.025246 0.038206 0.047800 0.041909 -0.015737 0.100985 -0.078095 0.025078 0.001630 0.090887 -0.074056 -0.055542 0.021712 0.092233 0.005154 0.083481 0.034335 -0.046453 -0.024236 -0.075402 -0.090214 -0.048810 -0.051839 0.063284 0.048136 -0.086847 -0.025246 0.023227 -0.074393 0.007111 0.044770 -0.021459 -0.019187 0.121856 -0.011529 -0.111757 0.030801 0.019860 -0.042414 0.044434 0.050156 -0.021880 -0.049819 -0.031474 0.030464 -0.035850 -0.047463 -0.071363 -0.058235 0.057898 -0.046117 -0.019440 0.051166 -0.015064 -0.007448 -0.018598 -0.129261 0.011277 0.004839 0.068670 -0.006774 0.013970 -0.056215 -0.032315 -0.083481 -0.083481 -0.089540 -0.073383 -0.023227 0.038543 -0.027266 -0.056552 -0.055542 0.024068 -0.042582 0.049819 0.045443 0.064967 0.040058 -0.047800 -0.024236 0.024405 -0.011529 -0.005849 -0.016073 -0.028781 0.029959 -0.015484 -0.075739 0.027098 -0.114450 -0.077422 -0.002135 -0.020197 0.048810 -0.003135 0.033662 0.034672 -0.006564 -0.009930 -0.050156 -0.061264 0.026256 -0.017504 0.043087 -0.005680 0.027771 0.004671 0.084154 -0.024741 0.024236 0.036691 0.067997 -0.067997 0.037701 -0.053186 -0.060255 0.001168 0.115796 0.071026 -0.075066 0.025078 -0.036523 -0.006143 -0.026761 0.004166 0.037365 0.058571 0.010393 0.103005 -0.069007 -0.049819 0.040394 0.235632 -0.068670 0.111757 -0.090887 0.096946 -0.081798 -0.048136 0.023732 -0.027098 0.012876 -0.038206 0.115796 0.002735 -0.087521 0.000773 0.083818 0.036186 -0.032989 0.066314 0.012287 0.086847 -0.062948 0.001799 -0.078095 -0.010393 0.039553 0.045443 -0.091560 -0.017083 0.101659 -0.088194 0.028781 0.089540 -0.024910 0.018009 -0.035008 -0.024236 0.006564 -0.018262 -0.007448 -0.017925 0.104351 0.088194 0.038374 0.012118 0.068333 -0.051839 -0.012876 0.027939 -0.077759 -0.058235 0.031474 0.031642 0.043087 0.086847 0.000821 0.075739 -0.084828 -0.069343 0.026256 0.100985 -0.030296 0.044097 0.051503 -0.049819 -0.088194 0.089540 0.100985 0.014559 0.024910 -0.025751 -0.068670 0.027098 -0.014054 0.058235 0.041404 0.054532 -0.043424 0.033157 -0.059918 0.093580 0.007995 -0.005428 0.059918 0.008878 0.019440 -0.002640 -0.047800 -0.021712 0.015989 0.014559 0.030801 0.108391 -0.147439 0.059581 -0.003598 -0.053522 -0.030296 -0.028781 0.109737 -0.002556 0.008121 0.065977 
automobile	0.046488 0.021350 0.005445 0.047521 -0.021264 0.024277 0.031164 -0.063017 0.090910 0.034436 -0.000694 0.014463 -0.053375 -0.066116 -0.021522 -0.022039 0.074725 0.028237 0.046144 0.039084 0.022039 -0.019026 -0.053031 -0.030303 0.018681 0.144629 -0.033402 0.058196 0.034263 0.042700 -0.091598 -0.085744 -0.014807 0.099863 0.022211 -0.018509 0.125345 -0.026860 0.034608 0.030820 0.000834 0.029442 0.000627 0.088155 -0.041495 -0.040978 0.016443 0.085400 0.075069 0.005187 -0.044766 0.119147 -0.051309 0.107439 -0.002389 0.090221 -0.001625 0.032025 0.063017 -0.010675 0.029098 -0.041150 -0.146695 -0.037707 0.014635 0.043905 -0.121213 0.013172 -0.038051 0.037190 0.001216 -0.049931 -0.022900 -0.061640 -0.115015 -0.026515 -0.038568 -0.015926 -0.049587 -0.063706 0.084711 -0.119147 -0.030992 0.024966 -0.002518 0.011450 -0.053375 0.103307 -0.094353 0.017390 -0.018165 -0.000344 0.067494 -0.040634 -0.071282 -0.039601 0.046488 -0.067149 0.047521 -0.047865 0.017304 -0.046144 -0.036157 0.018165 0.073692 -0.035813 -0.042528 -0.052686 0.036846 0.051309 -0.117081 -0.054752 -0.003594 -0.011278 0.124657 -0.007877 0.016959 0.030992 0.006414 0.103307 -0.019456 0.106750 -0.031853 -0.073348 0.060607 0.046144 0.021953 -0.091598 0.020145 0.085056 0.009298 0.010847 -0.069560 -0.075069 0.002314 -0.019284 -0.067838 -0.066805 -0.099174 -0.070248 -0.021780 -0.031336 -0.100552 0.052686 0.045455 -0.016013 0.045799 0.058540 -0.042184 -0.044422 0.070937 -0.037879 0.006672 -0.034091 -0.046488 0.000433 0.023588 0.016099 0.042011 -0.110194 0.005122 -0.002690 -0.034952 -0.059229 0.032197 0.046832 -0.015238 -0.041323 0.001227 -0.037018 -0.020317 0.003465 0.025310 -0.083334 -0.032197 -0.095042 0.038396 -0.063361 -0.078169 -0.041495 -0.106750 -0.047521 -0.109505 0.019112 0.075069 0.055097 0.001017 0.014893 0.006112 0.048898 0.070593 0.065427 -0.050276 0.074036 -0.014549 0.047865 0.045799 -0.068527 -0.010546 0.005768 -0.093665 -0.064739 -0.039084 -0.033747 -0.065772 -0.063361 -0.007662 -0.053031 0.017562 -0.055441 0.048554 0.056130 0.034780 -0.052342 0.005811 0.082645 0.008781 0.115703 0.005316 -0.021178 -0.005208 -0.130166 0.026860 -0.010331 0.071626 0.029098 0.016701 0.024449 -0.015668 0.024277 0.005682 0.004498 -0.033058 -0.062328 -0.082990 -0.016615 -0.029270 -0.060607 0.014291 -0.013688 0.090910 -0.076102 -0.083334 0.048210 -0.081957 -0.008006 0.056819 0.001388 0.084023 -0.090910 0.056819 -0.040117 0.047177 -0.035124 -0.050965 0.004584 -0.025138 0.030648 -0.009771 0.000409 0.012655 -0.099174 0.088155 -0.008092 0.044422 0.219010 -0.046488 -0.045799 -0.100552 0.016357 -0.030475 -0.016529 -0.025999 0.026171 -0.050276 -0.057507 0.003444 0.013430 0.021953 0.049243 -0.045455 -0.030475 0.051653 -0.161847 -0.163224 -0.002152 -0.071282 -0.027204 0.003379 0.053375 -0.121902 -0.017562 0.027032 -0.029442 -0.015324 -0.013860 -0.048898 0.128100 -0.013688 -0.105373 
avenue	0.024923 0.015758 0.068498 0.043414 0.023476 -0.021225 0.011738 -0.053705 -0.004643 0.006954 -0.031676 -0.036982 0.146643 -0.086828 0.023637 -0.040841 0.029907 0.001759 0.071714 -0.013507 0.153075 -0.035214 0.038108 -0.018009 -0.020019 -0.122203 -0.064960 0.042128 -0.032963 0.001121 0.036661 -0.034570 0.023958 0.021707 -0.025405 0.051454 0.082326 -0.133780 -0.004362 -0.080718 -0.018089 0.045987 -0.108053 0.071714 -0.050811 -0.003618 -0.067855 0.075251 -0.054991 0.068498 0.022833 -0.021385 -0.010693 -0.056277 -0.019134 0.040037 -0.096476 -0.151788 0.052740 -0.109339 0.003156 -0.117057 -0.006713 0.071714 -0.012542 0.007798 -0.028943 0.029425 -0.040198 0.027656 -0.088114 0.017044 0.060137 -0.090687 0.024601 -0.037947 0.027335 0.028782 0.025084 0.061101 -0.029586 0.019134 0.078788 0.021225 -0.055313 0.078788 0.031194 0.054991 0.024601 0.018652 0.058850 -0.046630 -0.043092 0.015356 -0.006954 -0.011899 -0.020019 0.102264 -0.060780 -0.097762 -0.037143 0.053062 0.001357 0.045344 0.022672 -0.055956 0.006673 -0.038429 0.055313 -0.085542 -0.056277 -0.029264 0.064960 0.025244 0.100335 -0.034570 0.047273 -0.017285 -0.077824 0.010773 0.055956 0.004442 -0.021868 -0.036982 0.026048 -0.069784 -0.063352 0.041485 0.113841 0.077502 0.075894 -0.074929 0.044379 -0.053383 0.008763 -0.097762 -0.084255 -0.098405 0.045665 0.057242 0.077502 0.028139 -0.012301 0.125418 -0.011014 0.016320 -0.120916 -0.013989 -0.100978 -0.038590 -0.017205 0.097762 -0.016562 -0.021064 0.047595 0.002060 -0.014230 -0.113198 -0.026852 0.009205 0.016079 0.085542 0.030390 -0.015918 0.023315 -0.015356 -0.040198 -0.005387 0.064639 -0.013265 -0.046630 0.163366 -0.010050 -0.040198 0.056599 -0.040037 0.043736 -0.076859 0.064317 0.114484 -0.093903 0.019697 -0.054670 -0.067211 -0.066247 -0.093260 0.028621 0.032159 0.156934 -0.061101 -0.006552 0.007075 -0.003457 0.004562 -0.063674 -0.080075 -0.091330 0.040037 0.011336 -0.012220 0.049203 -0.032319 0.018330 -0.045665 0.080396 0.024601 -0.028139 0.088114 -0.034410 0.011336 0.026531 0.082969 -0.162079 0.020099 -0.028621 0.053383 0.025727 -0.016160 -0.024280 0.039555 -0.037626 -0.035214 0.014552 0.026692 -0.025244 0.044379 0.015677 -0.051132 -0.009045 0.019134 -0.032641 0.039073 -0.030551 0.015918 0.002291 -0.014230 -0.069463 0.016964 0.060458 -0.004522 0.019295 -0.009808 -0.037626 0.054670 0.024441 -0.004120 0.019456 0.073000 -0.018330 -0.024280 0.054026 -0.035374 0.075894 0.027496 0.039877 -0.029586 -0.051775 0.008401 -0.074929 -0.080718 -0.056277 -0.084899 0.019054 0.099048 -0.014632 0.086828 0.006994 0.031515 -0.165938 -0.025405 0.054670 0.025888 -0.004562 0.079753 0.004864 0.023797 -0.021385 -0.036661 0.060458 0.112555 -0.165938 -0.070749 -0.003276 0.060780 -0.113841 0.059493 0.000575 0.112555 0.025405 -0.051775 -0.017768 -0.061423 -0.057564 -0.020501 0.011336 0.066890 -0.012863 -0.006593 -0.049524 0.000809 
baby	0.011630 0.028615 -0.042504 -0.000080 -0.001590 -0.022256 0.019662 -0.037986 0.008743 0.017822 0.079318 -0.141903 0.019662 0.020834 -0.099734 0.012550 -0.072625 0.036982 -0.099064 0.010793 0.024264 -0.037818 0.078649 0.008660 0.031460 -0.041500 -0.035810 0.011965 0.072290 -0.142572 -0.020248 -0.010166 -0.084339 -0.061246 -0.070617 0.050202 0.101072 -0.057899 -0.075972 -0.017320 -0.053548 -0.019579 0.066266 -0.022758 0.055891 -0.011965 0.033133 0.090363 0.004058 0.048193 0.003702 0.019913 -0.023929 0.047189 0.058234 -0.035308 -0.044177 -0.011463 0.121822 0.054552 -0.047189 0.004225 -0.003953 0.038655 0.134540 0.004434 -0.039994 0.032631 0.017320 0.053214 0.065262 0.030958 -0.089693 0.060911 -0.135879 0.190096 -0.006986 0.001229 -0.006526 0.059907 0.043843 -0.006150 -0.005857 -0.053548 -0.094379 -0.074968 0.103750 0.067270 0.048193 0.059572 0.016650 -0.019913 -0.051540 -0.085677 -0.078649 0.056226 0.059238 0.001883 0.083669 0.039492 -0.001506 -0.055556 0.087685 -0.058903 -0.046520 -0.121822 0.061915 -0.010500 0.010333 0.017236 0.008911 0.005480 0.067939 -0.016148 -0.062919 -0.016232 -0.039659 0.010877 -0.100403 0.007237 -0.022758 -0.039994 -0.075637 -0.050871 0.017654 0.051540 0.045851 -0.002615 -0.022256 0.049532 0.013722 -0.004581 -0.014642 0.023093 -0.034137 0.036982 0.038990 0.037651 0.060577 0.033802 0.089693 -0.059572 -0.004288 -0.054552 -0.032296 0.153951 -0.003640 0.151274 -0.107097 -0.026439 0.153951 -0.027611 -0.100403 0.017822 0.057564 0.033300 -0.061246 -0.053883 -0.008492 -0.006526 -0.083669 -0.012801 0.071956 0.011212 -0.053883 -0.105089 0.007823 0.065931 -0.034137 -0.003493 -0.013805 -0.063923 0.029117 -0.029117 -0.044512 -0.006275 0.179387 0.107097 -0.046855 0.032129 -0.074298 -0.067605 0.075637 -0.054552 -0.013220 0.069613 -0.055556 0.050536 -0.030958 0.031962 0.009496 -0.022256 -0.000988 0.035978 0.095718 0.128516 -0.043843 -0.091032 -0.053548 -0.074298 -0.107097 -0.068609 -0.085677 -0.066935 -0.013889 -0.016064 -0.022925 -0.041500 0.087685 -0.050536 -0.085008 0.083000 -0.010877 0.015981 -0.004414 0.062585 0.089693 -0.058234 0.011212 -0.028950 0.041835 -0.000285 0.089024 -0.015395 0.054887 -0.083669 -0.074968 -0.036145 -0.035308 0.016985 -0.038320 0.016148 -0.048528 -0.020081 0.002081 -0.002374 -0.017320 -0.050871 0.084673 0.081996 -0.027109 -0.055222 -0.033133 -0.026272 0.011463 0.074298 -0.030456 0.048863 0.010375 -0.036814 -0.009831 -0.029117 0.010249 0.031962 0.052210 0.079988 -0.036647 0.039325 0.023929 -0.073294 -0.031292 -0.001496 -0.052210 0.057564 -0.039659 0.041667 -0.071956 -0.068609 -0.117806 0.027946 -0.051540 0.028615 0.058234 0.026941 0.070617 -0.065931 0.033133 0.041667 0.032296 -0.062919 0.051540 -0.002615 0.033300 0.058568 -0.022758 0.003535 -0.043843 -0.062585 -0.011044 0.147258 -0.028950 -0.021001 -0.025435 -0.014307 0.008325 0.020583 0.024431 0.016734 -0.097056 0.033635 
bank	0.008567 0.052542 -0.022559 0.021702 0.038645 -0.054827 -0.001184 0.007329 0.098992 -0.019037 -0.006377 -0.005211 0.024367 0.023701 -0.035980 0.121837 0.000054 -0.052542 -0.016848 0.045498 0.086809 -0.038264 0.017609 -0.008709 0.020179 -0.094043 -0.043404 0.037884 0.089093 -0.004236 -0.015706 -0.007139 0.121075 0.015134 -0.111176 -0.080336 0.143920 -0.020465 0.051019 0.059015 0.062061 -0.092139 0.029127 -0.021607 -0.033695 -0.089093 0.000952 0.003165 -0.063203 0.057111 0.054827 -0.001493 0.042643 0.044547 -0.046450 -0.027794 -0.137828 0.078052 0.022464 -0.143158 -0.009471 -0.015515 -0.057872 0.017990 0.001951 -0.048164 -0.028555 0.029127 -0.013802 0.027223 0.034647 0.013326 0.103561 -0.007853 -0.097089 0.067772 -0.013421 0.068152 0.102038 -0.003522 -0.061680 -0.078813 0.044927 0.084905 -0.004212 0.075767 -0.111938 -0.015325 0.019989 -0.034647 0.023225 0.057111 0.027033 -0.119552 -0.068152 -0.141635 0.028936 -0.013040 0.062441 0.002927 -0.006044 -0.025700 0.013611 0.034267 0.138589 -0.059395 -0.026461 -0.011755 0.071579 -0.072341 -0.037693 -0.046450 -0.091378 -0.068914 -0.024558 0.059776 -0.000324 0.096327 -0.000399 0.069295 0.031411 -0.053304 -0.046450 0.030650 0.048544 -0.069675 0.026081 0.022083 -0.025129 0.009756 -0.018180 -0.030269 -0.009376 -0.051400 0.018276 -0.047973 -0.090616 -0.075767 -0.083001 0.017038 0.031411 -0.172094 -0.006330 0.067010 -0.066249 0.046831 0.018942 0.095185 0.030459 0.045308 -0.011232 0.018751 -0.044927 0.040168 -0.014278 -0.002273 -0.019418 0.043975 0.094043 0.113461 -0.005211 0.059776 0.068914 -0.003189 -0.067391 -0.024938 0.093662 -0.028555 -0.016086 0.015420 -0.125644 0.053304 -0.054065 -0.079575 0.028365 0.040358 0.004212 0.029127 0.070437 -0.063203 0.017895 -0.012469 -0.043024 -0.118791 -0.037884 -0.133259 0.008519 0.152296 -0.025129 0.045879 -0.103561 -0.006615 -0.097469 0.021321 -0.021131 0.039026 -0.079575 -0.039026 0.017228 -0.095946 -0.110415 0.043024 0.031982 0.042072 0.017038 0.086428 0.040739 0.079955 0.017800 -0.111938 0.039597 -0.036361 0.099754 0.065868 0.024272 -0.035790 -0.054065 -0.013516 -0.064345 -0.043404 0.019418 0.049115 0.023796 -0.015134 -0.044547 0.104323 -0.010518 0.067010 -0.015991 -0.003046 0.030840 -0.043024 -0.079194 -0.002558 -0.042453 -0.088712 0.049496 0.009899 -0.037503 0.018561 0.065487 0.007091 -0.040739 0.029888 0.037313 -0.108892 0.081478 -0.059395 0.058253 0.095185 -0.061299 -0.076148 -0.014849 0.066629 -0.025129 -0.041881 0.058634 0.045118 -0.017038 0.055207 0.012660 0.007520 0.014944 -0.007948 -0.007091 0.171333 -0.006520 -0.047021 -0.106607 -0.026461 -0.059395 0.055207 -0.021893 0.019323 -0.028746 -0.001190 0.071198 -0.011517 0.017800 -0.008567 0.002522 -0.014373 -0.018276 0.004616 -0.026842 -0.017800 0.000402 0.039026 -0.047783 0.065868 -0.061299 0.027984 -0.035790 -0.015515 0.042453 -0.007520 -0.056730 -0.021702 -0.014944 -0.124121 
baseball	-0.035527 0.086185 0.085527 -0.010526 -0.096054 -0.065790 0.061514 -0.021217 0.062172 0.026974 -0.024671 -0.086185 -0.043093 0.027796 -0.015790 -0.030263 0.025987 0.118422 0.088817 -0.046711 -0.042106 0.030757 -0.003577 -0.047369 -0.014556 0.053619 -0.026152 0.115133 0.041283 0.101975 0.016694 0.047369 -0.012747 0.013651 -0.006168 0.024013 0.099343 -0.059869 0.086843 0.062830 0.061514 -0.024013 0.075988 -0.019984 0.018750 0.059869 0.063159 -0.063159 -0.019079 0.109212 -0.017846 0.000797 -0.028290 -0.004153 -0.010403 -0.053948 -0.003516 -0.023027 -0.004235 -0.055922 -0.038323 -0.020642 0.044408 0.024671 0.079935 0.001737 -0.079277 0.045066 0.092106 0.029441 0.115133 0.008388 -0.034375 -0.063488 -0.004317 0.053948 0.072698 -0.016612 -0.015872 -0.074672 -0.066119 -0.044408 -0.059540 0.031250 -0.045066 -0.024178 -0.121054 0.109870 0.038323 -0.060527 -0.047698 -0.015214 0.026974 0.024013 -0.045395 0.071711 0.101317 0.067764 -0.036514 -0.050658 -0.033882 0.012747 0.062830 -0.056580 0.129607 0.095396 0.041777 -0.018257 -0.090133 -0.019737 0.055593 0.031908 -0.077961 0.045066 0.128949 0.219739 -0.044408 0.029441 0.000540 -0.003228 -0.057895 -0.002693 -0.034211 -0.036678 -0.011267 -0.101975 -0.046711 0.094738 -0.100659 -0.023191 -0.011924 -0.137501 -0.037500 0.024342 -0.015132 -0.053948 -0.077632 0.008059 -0.055264 -0.061843 -0.050658 0.041448 0.071053 -0.044079 0.017434 0.096712 0.036842 -0.032402 0.019737 -0.109212 0.011184 -0.005017 -0.151975 -0.008183 -0.111843 -0.058553 0.049343 -0.059540 -0.031744 0.005510 -0.008841 -0.030592 0.002673 -0.001820 -0.007278 -0.040954 0.019490 -0.111185 -0.026152 0.008347 0.028290 -0.018175 0.063159 -0.067764 0.028125 -0.006291 0.034704 0.056909 -0.039639 0.056251 0.002426 0.056251 -0.022533 -0.025000 0.015050 0.023191 -0.032895 -0.062172 0.089475 0.005839 0.052632 0.053290 -0.035691 -0.004256 -0.111843 0.018915 0.003372 -0.084869 -0.035362 -0.025494 -0.031908 -0.088817 -0.040790 -0.043422 -0.074343 -0.110527 0.043750 -0.094080 -0.025000 0.003063 -0.028454 -0.006826 -0.063159 0.055922 -0.037171 0.076646 -0.054277 0.023191 -0.041612 0.004091 0.028783 -0.134212 -0.056251 -0.009581 0.078290 0.037336 -0.000352 0.040132 0.009992 -0.035691 0.024836 0.011513 -0.010773 0.011020 -0.000576 -0.005428 0.014556 -0.093422 0.109870 -0.060527 0.037994 -0.097369 0.076317 -0.125659 -0.057237 -0.003803 -0.044408 -0.060198 -0.047040 -0.020148 -0.007319 0.001830 0.047040 -0.017270 0.011020 0.040132 0.020724 -0.115791 -0.036020 0.025987 0.100001 -0.062501 0.027632 0.041448 -0.070395 0.124343 -0.070395 -0.024013 -0.068093 -0.043093 0.001511 0.053948 -0.074014 0.042764 -0.005017 -0.092106 -0.006867 0.022698 0.059540 -0.082238 0.021711 0.040461 0.094738 0.081251 -0.039474 -0.019737 -0.106580 0.067764 -0.018832 -0.047698 -0.039639 0.008553 -0.035527 -0.047040 0.092106 0.034540 0.020559 0.019326 -0.004831 0.037007 
basketball	-0.002776 0.027445 0.069168 0.036964 0.004918 -0.066947 0.084398 -0.053938 0.003530 0.018085 -0.023162 -0.023479 0.082494 0.050448 0.049496 -0.009677 0.048227 0.081859 0.100262 0.013405 -0.071389 0.093282 0.032998 -0.007892 -0.047910 0.005671 0.005017 0.082494 0.032522 0.030618 0.013009 -0.014278 0.009994 -0.011184 0.069803 -0.016816 0.094551 -0.040930 0.035536 0.104704 -0.021417 -0.052035 0.036170 -0.014357 -0.026017 -0.031570 0.077418 -0.052669 -0.005315 0.118665 0.079956 0.018323 -0.076783 -0.002776 0.058698 -0.111050 -0.030618 -0.049179 0.027128 -0.069803 -0.065995 -0.034267 -0.033632 0.072024 0.052669 0.034267 0.067264 0.019989 0.080273 -0.027128 0.098358 -0.024590 -0.081859 0.030142 0.031253 -0.005434 0.001140 -0.079956 0.020782 -0.036012 -0.046006 0.029190 -0.066630 0.019513 0.000853 -0.000239 -0.067899 0.102166 0.083763 -0.025541 -0.085667 -0.052352 0.013485 0.043785 0.076466 -0.017609 0.062505 0.021575 0.034743 -0.025066 -0.030618 0.018244 0.100897 -0.014278 0.116761 0.107242 -0.026969 -0.087571 -0.056477 -0.003331 0.002409 0.010391 -0.089474 0.040612 0.114223 0.133260 0.029825 0.079639 -0.014040 -0.086301 -0.107877 0.004006 -0.026969 -0.024590 -0.025859 -0.054573 -0.088840 -0.026176 -0.033949 0.001616 -0.021258 -0.078687 -0.012929 0.072976 0.002875 -0.053938 -0.000553 0.081225 -0.053938 -0.019672 -0.038709 -0.041247 0.054256 -0.026493 0.000972 0.146586 0.029825 -0.059650 0.017451 -0.057111 0.078687 0.104069 -0.133894 0.011422 -0.102800 0.015547 0.038709 -0.001557 -0.006346 0.026176 -0.033632 0.009638 0.019513 0.042516 0.102166 -0.070755 0.026017 -0.073610 -0.110415 0.038867 0.025700 -0.004958 0.016975 -0.049814 0.018720 0.015388 0.031728 0.028238 0.038550 0.029507 0.069485 0.034267 -0.040930 -0.058063 -0.045689 0.026493 -0.014436 0.011422 0.069803 0.065678 0.128818 -0.057429 0.019116 0.082494 -0.093916 0.033474 0.016578 -0.031411 0.041247 -0.008210 -0.079639 -0.060284 -0.030142 -0.047275 0.000828 -0.118030 0.065361 -0.090109 -0.041564 -0.053304 -0.064092 0.064726 0.039661 -0.007654 -0.025383 0.070755 -0.017213 -0.015706 -0.044420 -0.044103 -0.060284 -0.042833 -0.009122 -0.054573 0.045372 0.031094 -0.032522 0.083763 0.009677 -0.051717 0.067582 -0.017371 -0.048862 0.018403 0.013247 -0.062505 0.026652 -0.100897 0.037440 -0.001666 0.026652 -0.036012 0.101531 -0.080908 -0.039185 0.025224 -0.109146 -0.069168 -0.088840 -0.052669 0.111684 0.065678 0.008289 -0.007417 0.093282 0.038550 0.094551 -0.059967 -0.022527 0.039185 0.085667 -0.050448 0.039343 -0.029190 -0.083129 0.135798 -0.051083 0.046006 -0.007218 -0.008884 -0.024590 0.075197 -0.071706 -0.015785 0.105339 -0.091378 0.032839 -0.100262 -0.004065 -0.067264 -0.068216 0.009241 0.066947 -0.012929 -0.019037 -0.069168 -0.068216 -0.009082 0.024590 0.064092 -0.086301 -0.003530 0.006425 -0.113588 0.087571 0.093282 0.042199 0.072024 0.015150 0.084398 
bed	-0.010216 -0.031049 0.025339 0.091362 0.048536 -0.058529 0.030514 -0.070306 0.080299 0.017220 0.007004 -0.066380 -0.002967 0.002487 -0.071020 -0.056744 -0.038365 0.045503 0.106351 0.117058 0.011242 -0.005889 0.020342 0.009279 0.036937 0.000435 -0.083154 -0.011108 -0.080299 -0.077444 -0.070306 0.092790 -0.058886 -0.003636 -0.085295 0.003123 -0.020878 0.058886 -0.092076 0.002052 -0.010528 0.029086 0.067808 0.029800 0.037651 -0.026409 -0.037651 -0.017398 0.018736 0.020253 0.012580 -0.008654 -0.016327 0.033904 0.055674 -0.084224 0.063882 0.063525 0.022841 0.058172 0.014275 0.021770 -0.032298 0.021591 0.099927 0.037473 -0.073518 -0.062811 0.051391 0.052462 0.114916 0.023197 0.026052 0.041220 0.011599 0.044254 0.016506 -0.057458 0.088507 0.016060 0.049250 -0.016684 -0.026409 -0.005844 0.032120 0.040685 0.042826 0.067094 0.048179 -0.029443 0.066023 0.038008 0.059243 -0.071020 -0.037473 0.047822 0.156315 -0.162739 0.071734 -0.068165 -0.068522 -0.107065 0.072447 -0.097786 -0.041755 -0.040149 0.024447 -0.005799 -0.018915 -0.003569 -0.044075 -0.047465 0.045681 -0.094931 -0.009591 -0.038365 0.002576 0.054960 -0.026409 0.130619 -0.040506 -0.031406 0.016060 0.015435 0.029086 -0.041577 -0.023733 0.017755 0.071020 0.068522 -0.057458 0.038722 -0.020253 -0.007628 -0.071734 0.059243 0.029443 0.037294 0.063525 0.122768 -0.012669 -0.016506 0.059600 -0.051748 -0.052105 0.023197 -0.074232 -0.044075 -0.055317 0.028908 0.140612 0.043897 -0.003390 0.014365 0.051748 -0.054246 -0.052105 -0.088864 -0.077801 0.006469 0.045681 0.035153 0.037651 -0.076730 -0.022216 -0.005108 -0.034082 -0.034796 0.005108 -0.036224 0.008476 -0.029264 -0.044432 0.018915 -0.069949 -0.064596 0.063882 -0.066380 -0.051391 0.045146 -0.053176 0.018290 -0.011108 -0.002710 0.040506 -0.006692 -0.014989 0.085652 0.097786 -0.045146 0.074589 -0.092790 -0.012045 0.093503 0.009547 0.192717 -0.042826 -0.031941 -0.014989 -0.011420 0.003747 0.066737 -0.017577 -0.073875 0.012223 -0.046752 0.068522 0.067808 0.080656 -0.024268 -0.124195 0.055674 -0.102069 -0.010885 0.022038 -0.028372 0.018201 0.115630 -0.046395 0.069949 -0.039793 0.072447 0.084224 0.037294 -0.000449 -0.067094 -0.010751 -0.005554 -0.032120 -0.012491 -0.046038 -0.118485 -0.011777 -0.078871 -0.029978 -0.003903 0.038187 0.040149 0.032655 0.051034 0.027837 -0.075302 -0.011420 -0.009770 0.013829 0.007093 0.015881 -0.038008 -0.092076 -0.057101 0.073518 0.052819 0.097072 0.084224 -0.107779 0.007941 -0.079228 0.020878 -0.034082 -0.025160 -0.097072 -0.039793 -0.122054 -0.031049 -0.034439 0.031584 -0.047465 -0.027837 -0.088507 0.032298 -0.005398 -0.004305 0.142753 -0.015881 0.055317 -0.022841 -0.001461 -0.008298 0.040149 -0.073161 0.048179 0.112061 0.094931 0.024268 0.077444 0.021770 -0.005554 -0.064953 0.020164 0.092790 -0.039614 0.079585 -0.081013 0.038543 -0.087793 -0.094931 -0.102069 0.023376 0.012759 0.097786 
